<?xml version="1.0"?>
<MethodSetup Method="BDT::BDTG">
  <GeneralInfo>
    <Info name="TMVA Release" value="4.2.1 [262657]"/>
    <Info name="ROOT Release" value="6.14/06 [396806]"/>
    <Info name="Creator" value="subhparasara"/>
    <Info name="Date" value="Wed Nov 13 16:51:50 2019"/>
    <Info name="Host" value="Darwin SUBHASISHs-MacBook-Air.local 18.7.0 Darwin Kernel Version 18.7.0: Tue Aug 20 16:57:14 PDT 2019; root:xnu-4903.271.2~2/RELEASE_X86_64 x86_64"/>
    <Info name="Dir" value="/Users/subhparasara/Documents/RESEARCH/PACKAGES_USED/BUILD_ROOT_V6_14_06/tutorials/tmva"/>
    <Info name="Training events" value="296498"/>
    <Info name="TrainingTime" value="2.04684914e+02"/>
    <Info name="AnalysisType" value="Classification"/>
  </GeneralInfo>
  <Options>
    <Option name="V" modified="Yes">False</Option>
    <Option name="VerbosityLevel" modified="No">Default</Option>
    <Option name="VarTransform" modified="No">None</Option>
    <Option name="H" modified="Yes">True</Option>
    <Option name="CreateMVAPdfs" modified="No">False</Option>
    <Option name="IgnoreNegWeightsInTraining" modified="No">False</Option>
    <Option name="NTrees" modified="Yes">1000</Option>
    <Option name="MaxDepth" modified="Yes">2</Option>
    <Option name="MinNodeSize" modified="Yes">2.5%</Option>
    <Option name="nCuts" modified="Yes">20</Option>
    <Option name="BoostType" modified="Yes">Grad</Option>
    <Option name="AdaBoostR2Loss" modified="No">quadratic</Option>
    <Option name="UseBaggedBoost" modified="Yes">True</Option>
    <Option name="Shrinkage" modified="Yes">1.000000e-01</Option>
    <Option name="AdaBoostBeta" modified="No">5.000000e-01</Option>
    <Option name="UseRandomisedTrees" modified="No">False</Option>
    <Option name="UseNvars" modified="No">6</Option>
    <Option name="UsePoissonNvars" modified="No">True</Option>
    <Option name="BaggedSampleFraction" modified="Yes">5.000000e-01</Option>
    <Option name="UseYesNoLeaf" modified="No">True</Option>
    <Option name="NegWeightTreatment" modified="No">pray</Option>
    <Option name="Css" modified="No">1.000000e+00</Option>
    <Option name="Cts_sb" modified="No">1.000000e+00</Option>
    <Option name="Ctb_ss" modified="No">1.000000e+00</Option>
    <Option name="Cbb" modified="No">1.000000e+00</Option>
    <Option name="NodePurityLimit" modified="No">5.000000e-01</Option>
    <Option name="SeparationType" modified="No">giniindex</Option>
    <Option name="DoBoostMonitor" modified="No">False</Option>
    <Option name="UseFisherCuts" modified="No">False</Option>
    <Option name="MinLinCorrForFisher" modified="No">8.000000e-01</Option>
    <Option name="UseExclusiveVars" modified="No">False</Option>
    <Option name="DoPreselection" modified="No">False</Option>
    <Option name="SigToBkgFraction" modified="No">1.000000e+00</Option>
    <Option name="PruneMethod" modified="No">nopruning</Option>
    <Option name="PruneStrength" modified="No">0.000000e+00</Option>
    <Option name="PruningValFraction" modified="No">5.000000e-01</Option>
    <Option name="nEventsMin" modified="No">0</Option>
    <Option name="UseBaggedGrad" modified="No">False</Option>
    <Option name="GradBaggingFraction" modified="No">5.000000e-01</Option>
    <Option name="UseNTrainEvents" modified="No">0</Option>
    <Option name="NNodesMax" modified="No">0</Option>
  </Options>
  <Variables NVar="37">
    <Variable VarIndex="0" Expression="m_j1j2" Label="m_j1j2" Title="m_j1j2" Unit="" Internal="m_j1j2" Type="F" Min="1.04824886e+01" Max="3.31688416e+02"/>
    <Variable VarIndex="1" Expression="m_b1j1j2b2lv" Label="m_b1j1j2b2lv" Title="m_b1j1j2b2lv" Unit="" Internal="m_b1j1j2b2lv" Type="F" Min="3.45008392e+02" Max="2.66228394e+03"/>
    <Variable VarIndex="2" Expression="pt_j1" Label="pt_j1" Title="pt_j1" Unit="" Internal="pt_j1" Type="F" Min="2.50000877e+01" Max="7.13100708e+02"/>
    <Variable VarIndex="3" Expression="MT_j1j2" Label="MT_j1j2" Title="MT_j1j2" Unit="" Internal="MT_j1j2" Type="F" Min="5.05791855e+01" Max="7.59710388e+02"/>
    <Variable VarIndex="4" Expression="pt_b1" Label="pt_b1" Title="pt_b1" Unit="" Internal="pt_b1" Type="F" Min="2.50011997e+01" Max="8.41618958e+02"/>
    <Variable VarIndex="5" Expression="eta_b1" Label="eta_b1" Title="eta_b1" Unit="" Internal="eta_b1" Type="F" Min="-2.50534797e+00" Max="2.49012947e+00"/>
    <Variable VarIndex="6" Expression="phi_b1" Label="phi_b1" Title="phi_b1" Unit="" Internal="phi_b1" Type="F" Min="-3.14158058e+00" Max="3.14156389e+00"/>
    <Variable VarIndex="7" Expression="E_b1" Label="E_b1" Title="E_b1" Unit="" Internal="E_b1" Type="F" Min="-3.65476761e+01" Max="2.03498584e+03"/>
    <Variable VarIndex="8" Expression="eta_j1" Label="eta_j1" Title="eta_j1" Unit="" Internal="eta_j1" Type="F" Min="-2.48475194e+00" Max="2.56769753e+00"/>
    <Variable VarIndex="9" Expression="phi_j1" Label="phi_j1" Title="phi_j1" Unit="" Internal="phi_j1" Type="F" Min="-3.14156604e+00" Max="3.14156771e+00"/>
    <Variable VarIndex="10" Expression="E_j1" Label="E_j1" Title="E_j1" Unit="" Internal="E_j1" Type="F" Min="2.50648060e+01" Max="2.32465308e+03"/>
    <Variable VarIndex="11" Expression="pt_j2" Label="pt_j2" Title="pt_j2" Unit="" Internal="pt_j2" Type="F" Min="2.50000381e+01" Max="5.14042236e+02"/>
    <Variable VarIndex="12" Expression="eta_j2" Label="eta_j2" Title="eta_j2" Unit="" Internal="eta_j2" Type="F" Min="-2.57304955e+00" Max="2.50417089e+00"/>
    <Variable VarIndex="13" Expression="phi_j2" Label="phi_j2" Title="phi_j2" Unit="" Internal="phi_j2" Type="F" Min="-3.14156604e+00" Max="3.14155531e+00"/>
    <Variable VarIndex="14" Expression="E_j2" Label="E_j2" Title="E_j2" Unit="" Internal="E_j2" Type="F" Min="2.50126076e+01" Max="1.04965320e+03"/>
    <Variable VarIndex="15" Expression="pt_b2" Label="pt_b2" Title="pt_b2" Unit="" Internal="pt_b2" Type="F" Min="2.50011368e+01" Max="6.79663086e+02"/>
    <Variable VarIndex="16" Expression="eta_b2" Label="eta_b2" Title="eta_b2" Unit="" Internal="eta_b2" Type="F" Min="-2.49672604e+00" Max="2.49987364e+00"/>
    <Variable VarIndex="17" Expression="phi_b2" Label="phi_b2" Title="phi_b2" Unit="" Internal="phi_b2" Type="F" Min="-3.14158821e+00" Max="3.14157534e+00"/>
    <Variable VarIndex="18" Expression="E_b2" Label="E_b2" Title="E_b2" Unit="" Internal="E_b2" Type="F" Min="2.50511265e+01" Max="1.46101453e+03"/>
    <Variable VarIndex="19" Expression="pt_l" Label="pt_l" Title="pt_l" Unit="" Internal="pt_l" Type="F" Min="2.60005016e+01" Max="8.59958313e+02"/>
    <Variable VarIndex="20" Expression="eta_l" Label="eta_l" Title="eta_l" Unit="" Internal="eta_l" Type="F" Min="-2.39997268e+00" Max="2.39997077e+00"/>
    <Variable VarIndex="21" Expression="phi_l" Label="phi_l" Title="phi_l" Unit="" Internal="phi_l" Type="F" Min="-3.14157772e+00" Max="3.14155316e+00"/>
    <Variable VarIndex="22" Expression="E_l" Label="E_l" Title="E_l" Unit="" Internal="E_l" Type="F" Min="2.60110111e+01" Max="1.39529883e+03"/>
    <Variable VarIndex="23" Expression="pt_v" Label="pt_v" Title="pt_v" Unit="" Internal="pt_v" Type="F" Min="1.38737612e+01" Max="6.68345703e+02"/>
    <Variable VarIndex="24" Expression="eta_v" Label="eta_v" Title="eta_v" Unit="" Internal="eta_v" Type="F" Min="-3.04942417e+00" Max="2.98731494e+00"/>
    <Variable VarIndex="25" Expression="phi_v" Label="phi_v" Title="phi_v" Unit="" Internal="phi_v" Type="F" Min="-3.14154053e+00" Max="3.14157486e+00"/>
    <Variable VarIndex="26" Expression="E_v" Label="E_v" Title="E_v" Unit="" Internal="E_v" Type="F" Min="1.45351238e+01" Max="1.51187781e+03"/>
    <Variable VarIndex="27" Expression="ht_b1b2j1j2" Label="ht_b1b2j1j2" Title="ht_b1b2j1j2" Unit="" Internal="ht_b1b2j1j2" Type="F" Min="1.79681331e-01" Max="9.94298706e+02"/>
    <Variable VarIndex="28" Expression="m_lv" Label="m_lv" Title="m_lv" Unit="" Internal="m_lv" Type="F" Min="2.72533149e-01" Max="1.66138214e+02"/>
    <Variable VarIndex="29" Expression="m_b1b2" Label="m_b1b2" Title="m_b1b2" Unit="" Internal="m_b1b2" Type="F" Min="-1.11172371e+02" Max="1.45007983e+03"/>
    <Variable VarIndex="30" Expression="dPhi_j1j2" Label="dPhi_j1j2" Title="dPhi_j1j2" Unit="" Internal="dPhi_j1j2" Type="F" Min="3.62695573e-06" Max="3.14157915e+00"/>
    <Variable VarIndex="31" Expression="cTagDiscr1_j1" Label="cTagDiscr1_j1" Title="cTagDiscr1_j1" Unit="" Internal="cTagDiscr1_j1" Type="F" Min="-8.23632956e-01" Max="9.97590423e-01"/>
    <Variable VarIndex="32" Expression="cTagDiscr2_j1" Label="cTagDiscr2_j1" Title="cTagDiscr2_j1" Unit="" Internal="cTagDiscr2_j1" Type="F" Min="-8.32666457e-01" Max="9.96556342e-01"/>
    <Variable VarIndex="33" Expression="cTagDiscr1_j2" Label="cTagDiscr1_j2" Title="cTagDiscr1_j2" Unit="" Internal="cTagDiscr1_j2" Type="F" Min="-9.82555509e-01" Max="8.66449416e-01"/>
    <Variable VarIndex="34" Expression="cTagDiscr2_j2" Label="cTagDiscr2_j2" Title="cTagDiscr2_j2" Unit="" Internal="cTagDiscr2_j2" Type="F" Min="-9.80790019e-01" Max="8.62892568e-01"/>
    <Variable VarIndex="35" Expression="bTagDiscr_b1" Label="bTagDiscr_b1" Title="bTagDiscr_b1" Unit="" Internal="bTagDiscr_b1" Type="F" Min="4.26249385e-01" Max="9.99622762e-01"/>
    <Variable VarIndex="36" Expression="bTagDiscr_b2" Label="bTagDiscr_b2" Title="bTagDiscr_b2" Unit="" Internal="bTagDiscr_b2" Type="F" Min="-1.00000000e+01" Max="9.99912620e-01"/>
  </Variables>
  <Spectators NSpec="1">
    <Spectator SpecIndex="0" Expression="m_j1j2" Label="spec1" Title="Spectator 1" Unit="Gev" Internal="spec1" Type="F" Min="1.04824886e+01" Max="3.31688416e+02"/>
  </Spectators>
  <Classes NClass="2">
    <Class Name="Signal" Index="0"/>
    <Class Name="Background" Index="1"/>
  </Classes>
  <Transformations NTransformations="0"/>
  <MVAPdfs/>
  <Weights NTrees="1000" AnalysisType="1">
    <BinaryTree type="DecisionTree" boostWeight="1.0000000000000000e+00" itree="0">
      <Node pos="s" depth="0" NCoef="0" IVar="0" Cut="1.0286286926269531e+02" cType="1" res="2.6005876716226339e-03" rms="4.9999323487281799e-01" purity="5.0260061025619507e-01" nType="0">
        <Node pos="l" depth="1" NCoef="0" IVar="1" Cut="4.5057568359375000e+02" cType="1" res="-1.3986469805240631e-01" rms="4.8003944754600525e-01" purity="3.6013528704643250e-01" nType="0">
          <Node pos="l" depth="2" NCoef="0" IVar="-1" Cut="0.0000000000000000e+00" cType="1" res="-1.4624904841184616e-02" rms="4.9462389945983887e-01" purity="4.2687544226646423e-01" nType="-99"/>
          <Node pos="r" depth="2" NCoef="0" IVar="-1" Cut="0.0000000000000000e+00" cType="1" res="-4.2711343616247177e-02" rms="4.5209902524948120e-01" purity="2.8644329309463501e-01" nType="-99"/>
        </Node>
        <Node pos="r" depth="1" NCoef="0" IVar="11" Cut="3.9742599487304688e+01" cType="1" res="2.3171900212764740e-01" rms="4.4306468963623047e-01" purity="7.3171901702880859e-01" nType="0">
          <Node pos="l" depth="2" NCoef="0" IVar="-1" Cut="0.0000000000000000e+00" cType="1" res="3.5320952534675598e-02" rms="4.6777212619781494e-01" purity="6.7660474777221680e-01" nType="-99"/>
          <Node pos="r" depth="2" NCoef="0" IVar="-1" Cut="0.0000000000000000e+00" cType="1" res="5.3975615650415421e-02" rms="4.2091071605682373e-01" purity="7.6987808942794800e-01" nType="-99"/>
        </Node>
      </Node>
    </BinaryTree>
    <BinaryTree type="DecisionTree" boostWeight="1.0000000000000000e+00" itree="1">
      <Node pos="s" depth="0" NCoef="0" IVar="0" Cut="1.0286286926269531e+02" cType="1" res="1.1338709737174213e-04" rms="4.9291998147964478e-01" purity="5.0051516294479370e-01" nType="0">
        <Node pos="l" depth="1" NCoef="0" IVar="0" Cut="9.4145156860351562e+01" cType="1" res="-1.3108505308628082e-01" rms="4.7756740450859070e-01" purity="3.5490199923515320e-01" nType="0">
          <Node pos="l" depth="2" NCoef="0" IVar="-1" Cut="0.0000000000000000e+00" cType="1" res="-3.2191053032875061e-02" rms="4.6749532222747803e-01" purity="3.2507494091987610e-01" nType="-99"/>
          <Node pos="r" depth="2" NCoef="0" IVar="-1" Cut="0.0000000000000000e+00" cType="1" res="9.2173116281628609e-03" rms="4.9818029999732971e-01" purity="5.3273016214370728e-01" nType="-99"/>
        </Node>
        <Node pos="r" depth="1" NCoef="0" IVar="2" Cut="7.5709693908691406e+01" cType="1" res="2.0781119167804718e-01" rms="4.4290986657142639e-01" purity="7.3103260993957520e-01" nType="0">
          <Node pos="l" depth="2" NCoef="0" IVar="-1" Cut="0.0000000000000000e+00" cType="1" res="3.1205773353576660e-02" rms="4.6632638573646545e-01" purity="6.7880380153656006e-01" nType="-99"/>
          <Node pos="r" depth="2" NCoef="0" IVar="-1" Cut="0.0000000000000000e+00" cType="1" res="5.0034523010253906e-02" rms="4.1853541135787964e-01" purity="7.7290993928909302e-01" nType="-99"/>
        </Node>
      </Node>
    </BinaryTree>
    <BinaryTree type="DecisionTree" boostWeight="1.0000000000000000e+00" itree="2">
      <Node pos="s" depth="0" NCoef="0" IVar="0" Cut="1.0286286926269531e+02" cType="1" res="8.2099367864429951e-04" rms="4.8709493875503540e-01" purity="5.0092422962188721e-01" nType="0">
        <Node pos="l" depth="1" NCoef="0" IVar="1" Cut="4.5537295532226562e+02" cType="1" res="-1.1364825069904327e-01" rms="4.7772285342216492e-01" purity="3.5927516222000122e-01" nType="0">
          <Node pos="l" depth="2" NCoef="0" IVar="-1" Cut="0.0000000000000000e+00" cType="1" res="-9.8331635817885399e-03" rms="4.9408534169197083e-01" purity="4.3026158213615417e-01" nType="-99"/>
          <Node pos="r" depth="2" NCoef="0" IVar="-1" Cut="0.0000000000000000e+00" cType="1" res="-3.8385543972253799e-02" rms="4.4520881772041321e-01" purity="2.7428749203681946e-01" nType="-99"/>
        </Node>
        <Node pos="r" depth="1" NCoef="0" IVar="11" Cut="4.8288169860839844e+01" cType="1" res="1.8525184690952301e-01" rms="4.4351321458816528e-01" purity="7.2914677858352661e-01" nType="0">
          <Node pos="l" depth="2" NCoef="0" IVar="-1" Cut="0.0000000000000000e+00" cType="1" res="3.0280100181698799e-02" rms="4.6100798249244690e-01" purity="6.9176226854324341e-01" nType="-99"/>
          <Node pos="r" depth="2" NCoef="0" IVar="-1" Cut="0.0000000000000000e+00" cType="1" res="4.8717375844717026e-02" rms="4.0765497088432312e-01" purity="7.8919607400894165e-01" nType="-99"/>
        </Node>
      </Node>
    </BinaryTree>
    <BinaryTree type="DecisionTree" boostWeight="1.0000000000000000e+00" itree="3">
      <Node pos="s" depth="0" NCoef="0" IVar="0" Cut="9.8138221740722656e+01" cType="1" res="3.3417679369449615e-03" rms="4.8264074325561523e-01" purity="5.0314551591873169e-01" nType="0">
        <Node pos="l" depth="1" NCoef="0" IVar="1" Cut="4.5061935424804688e+02" cType="1" res="-1.1190864443778992e-01" rms="4.7404167056083679e-01" purity="3.4812793135643005e-01" nType="0">
          <Node pos="l" depth="2" NCoef="0" IVar="-1" Cut="0.0000000000000000e+00" cType="1" res="-1.1369018815457821e-02" rms="4.9260321259498596e-01" purity="4.1664147377014160e-01" nType="-99"/>
          <Node pos="r" depth="2" NCoef="0" IVar="-1" Cut="0.0000000000000000e+00" cType="1" res="-3.4899108111858368e-02" rms="4.4504523277282715e-01" purity="2.7309292554855347e-01" nType="-99"/>
        </Node>
        <Node pos="r" depth="1" NCoef="0" IVar="0" Cut="1.0743296051025391e+02" cType="1" res="1.5834726393222809e-01" rms="4.4957226514816284e-01" purity="7.1163564920425415e-01" nType="0">
          <Node pos="l" depth="2" NCoef="0" IVar="-1" Cut="0.0000000000000000e+00" cType="1" res="1.5851052477955818e-02" rms="4.8916420340538025e-01" purity="5.9692871570587158e-01" nType="-99"/>
          <Node pos="r" depth="2" NCoef="0" IVar="-1" Cut="0.0000000000000000e+00" cType="1" res="3.6669578403234482e-02" rms="4.3543574213981628e-01" purity="7.4332863092422485e-01" nType="-99"/>
        </Node>
      </Node>
    </BinaryTree>
    <BinaryTree type="DecisionTree" boostWeight="1.0000000000000000e+00" itree="4">
      <Node pos="s" depth="0" NCoef="0" IVar="0" Cut="9.8235939025878906e+01" cType="1" res="-6.6001055529341102e-04" rms="4.7742605209350586e-01" purity="5.0053805112838745e-01" nType="0">
        <Node pos="l" depth="1" NCoef="0" IVar="1" Cut="4.4374264526367188e+02" cType="1" res="-1.1520165950059891e-01" rms="4.6846774220466614e-01" purity="3.3374994993209839e-01" nType="0">
          <Node pos="l" depth="2" NCoef="0" IVar="-1" Cut="0.0000000000000000e+00" cType="1" res="-1.2193631380796432e-02" rms="4.9078363180160522e-01" purity="4.0707400441169739e-01" nType="-99"/>
          <Node pos="r" depth="2" NCoef="0" IVar="-1" Cut="0.0000000000000000e+00" cType="1" res="-3.4477729350328445e-02" rms="4.3877074122428894e-01" purity="2.6140344142913818e-01" nType="-99"/>
        </Node>
        <Node pos="r" depth="1" NCoef="0" IVar="0" Cut="1.1077582550048828e+02" cType="1" res="1.4755518734455109e-01" rms="4.4716417789459229e-01" purity="7.1635937690734863e-01" nType="0">
          <Node pos="l" depth="2" NCoef="0" IVar="-1" Cut="0.0000000000000000e+00" cType="1" res="1.8406489863991737e-02" rms="4.7953793406486511e-01" purity="6.3199049234390259e-01" nType="-99"/>
          <Node pos="r" depth="2" NCoef="0" IVar="-1" Cut="0.0000000000000000e+00" cType="1" res="3.5435784608125687e-02" rms="4.2982992529869080e-01" purity="7.5338321924209595e-01" nType="-99"/>
        </Node>
      </Node>
    </BinaryTree>
    <BinaryTree type="DecisionTree" boostWeight="1.0000000000000000e+00" itree="5">
      <Node pos="s" depth="0" NCoef="0" IVar="0" Cut="9.0923149108886719e+01" cType="1" res="1.1037645163014531e-03" rms="4.7447136044502258e-01" purity="5.0148898363113403e-01" nType="0">
        <Node pos="l" depth="1" NCoef="0" IVar="0" Cut="6.7940040588378906e+01" cType="1" res="-1.1069667339324951e-01" rms="4.6505317091941833e-01" purity="3.2525774836540222e-01" nType="0">
          <Node pos="l" depth="2" NCoef="0" IVar="-1" Cut="0.0000000000000000e+00" cType="1" res="-6.6759376786649227e-03" rms="4.8879644274711609e-01" purity="4.0594604611396790e-01" nType="-99"/>
          <Node pos="r" depth="2" NCoef="0" IVar="-1" Cut="0.0000000000000000e+00" cType="1" res="-3.2319888472557068e-02" rms="4.4318109750747681e-01" purity="2.7583563327789307e-01" nType="-99"/>
        </Node>
        <Node pos="r" depth="1" NCoef="0" IVar="0" Cut="1.0833534240722656e+02" cType="1" res="1.1012610793113708e-01" rms="4.5790520310401917e-01" purity="6.7334097623825073e-01" nType="0">
          <Node pos="l" depth="2" NCoef="0" IVar="-1" Cut="0.0000000000000000e+00" cType="1" res="7.1861892938613892e-03" rms="4.9164405465126038e-01" purity="5.3657639026641846e-01" nType="-99"/>
          <Node pos="r" depth="2" NCoef="0" IVar="-1" Cut="0.0000000000000000e+00" cType="1" res="3.1365565955638885e-02" rms="4.3301743268966675e-01" purity="7.4792528152465820e-01" nType="-99"/>
        </Node>
      </Node>
    </BinaryTree>
    <BinaryTree type="DecisionTree" boostWeight="1.0000000000000000e+00" itree="6">
      <Node pos="s" depth="0" NCoef="0" IVar="0" Cut="9.7468063354492188e+01" cType="1" res="-3.7948961835354567e-03" rms="4.6984443068504333e-01" purity="4.9776437878608704e-01" nType="0">
        <Node pos="l" depth="1" NCoef="0" IVar="0" Cut="6.4330444335937500e+01" cType="1" res="-9.9411875009536743e-02" rms="4.6497955918312073e-01" purity="3.2842096686363220e-01" nType="0">
          <Node pos="l" depth="2" NCoef="0" IVar="-1" Cut="0.0000000000000000e+00" cType="1" res="-4.2485953308641911e-03" rms="4.9119156599044800e-01" purity="4.1403973102569580e-01" nType="-99"/>
          <Node pos="r" depth="2" NCoef="0" IVar="-1" Cut="0.0000000000000000e+00" cType="1" res="-2.6859939098358154e-02" rms="4.5023989677429199e-01" purity="2.9415720701217651e-01" nType="-99"/>
        </Node>
        <Node pos="r" depth="1" NCoef="0" IVar="0" Cut="1.0989596557617188e+02" cType="1" res="1.1628035455942154e-01" rms="4.4784548878669739e-01" purity="7.1042484045028687e-01" nType="0">
          <Node pos="l" depth="2" NCoef="0" IVar="-1" Cut="0.0000000000000000e+00" cType="1" res="9.6147274598479271e-03" rms="4.8738849163055420e-01" purity="5.9417790174484253e-01" nType="-99"/>
          <Node pos="r" depth="2" NCoef="0" IVar="-1" Cut="0.0000000000000000e+00" cType="1" res="3.0186869204044342e-02" rms="4.2842411994934082e-01" purity="7.5578248500823975e-01" nType="-99"/>
        </Node>
      </Node>
    </BinaryTree>
    <BinaryTree type="DecisionTree" boostWeight="1.0000000000000000e+00" itree="7">
      <Node pos="s" depth="0" NCoef="0" IVar="0" Cut="1.0286286926269531e+02" cType="1" res="4.9618701450526714e-03" rms="4.6844157576560974e-01" purity="5.0526583194732666e-01" nType="0">
        <Node pos="l" depth="1" NCoef="0" IVar="0" Cut="8.9786605834960938e+01" cType="1" res="-6.4734257757663727e-02" rms="4.7299331426620483e-01" purity="3.6050033569335938e-01" nType="0">
          <Node pos="l" depth="2" NCoef="0" IVar="-1" Cut="0.0000000000000000e+00" cType="1" res="-1.8910875543951988e-02" rms="4.6338161826133728e-01" purity="3.2378774881362915e-01" nType="-99"/>
          <Node pos="r" depth="2" NCoef="0" IVar="-1" Cut="0.0000000000000000e+00" cType="1" res="5.6531340815126896e-03" rms="4.9370047450065613e-01" purity="4.8727354407310486e-01" nType="-99"/>
        </Node>
        <Node pos="r" depth="1" NCoef="0" IVar="0" Cut="1.3555459594726562e+02" cType="1" res="1.1595499515533447e-01" rms="4.3881431221961975e-01" purity="7.3580914735794067e-01" nType="0">
          <Node pos="l" depth="2" NCoef="0" IVar="-1" Cut="0.0000000000000000e+00" cType="1" res="2.7628760784864426e-02" rms="4.3097147345542908e-01" purity="7.4904340505599976e-01" nType="-99"/>
          <Node pos="r" depth="2" NCoef="0" IVar="-1" Cut="0.0000000000000000e+00" cType="1" res="-6.1866000760346651e-04" rms="4.8353490233421326e-01" purity="6.2510806322097778e-01" nType="-99"/>
        </Node>
      </Node>
    </BinaryTree>
    <BinaryTree type="DecisionTree" boostWeight="1.0000000000000000e+00" itree="8">
      <Node pos="s" depth="0" NCoef="0" IVar="0" Cut="9.0882644653320312e+01" cType="1" res="8.7648228509351611e-04" rms="4.6700587868690491e-01" purity="5.0110810995101929e-01" nType="0">
        <Node pos="l" depth="1" NCoef="0" IVar="0" Cut="6.0577796936035156e+01" cType="1" res="-8.2742050290107727e-02" rms="4.6333524584770203e-01" purity="3.2377129793167114e-01" nType="0">
          <Node pos="l" depth="2" NCoef="0" IVar="-1" Cut="0.0000000000000000e+00" cType="1" res="3.3447754103690386e-03" rms="4.9557802081108093e-01" purity="4.4013646245002747e-01" nType="-99"/>
          <Node pos="r" depth="2" NCoef="0" IVar="-1" Cut="0.0000000000000000e+00" cType="1" res="-2.5345962494611740e-02" rms="4.4422128796577454e-01" purity="2.7845704555511475e-01" nType="-99"/>
        </Node>
        <Node pos="r" depth="1" NCoef="0" IVar="0" Cut="1.0810151672363281e+02" cType="1" res="8.1755533814430237e-02" rms="4.5617225766181946e-01" purity="6.7263513803482056e-01" nType="0">
          <Node pos="l" depth="2" NCoef="0" IVar="-1" Cut="0.0000000000000000e+00" cType="1" res="5.5239526554942131e-03" rms="4.9240195751190186e-01" purity="5.3261327743530273e-01" nType="-99"/>
          <Node pos="r" depth="2" NCoef="0" IVar="-1" Cut="0.0000000000000000e+00" cType="1" res="2.4019187316298485e-02" rms="4.3267083168029785e-01" purity="7.4771428108215332e-01" nType="-99"/>
        </Node>
      </Node>
    </BinaryTree>
    <BinaryTree type="DecisionTree" boostWeight="1.0000000000000000e+00" itree="9">
      <Node pos="s" depth="0" NCoef="0" IVar="0" Cut="9.8624053955078125e+01" cType="1" res="-3.6841346882283688e-03" rms="4.6544331312179565e-01" purity="4.9604403972625732e-01" nType="0">
        <Node pos="l" depth="1" NCoef="0" IVar="1" Cut="4.5535485839843750e+02" cType="1" res="-6.5350823104381561e-02" rms="4.6764063835144043e-01" purity="3.3987611532211304e-01" nType="0">
          <Node pos="l" depth="2" NCoef="0" IVar="-1" Cut="0.0000000000000000e+00" cType="1" res="-4.6370755881071091e-03" rms="4.8836457729339600e-01" purity="4.0592050552368164e-01" nType="-99"/>
          <Node pos="r" depth="2" NCoef="0" IVar="-1" Cut="0.0000000000000000e+00" cType="1" res="-2.4592202156782150e-02" rms="4.3686094880104065e-01" purity="2.6252445578575134e-01" nType="-99"/>
        </Node>
        <Node pos="r" depth="1" NCoef="0" IVar="0" Cut="1.3601107788085938e+02" cType="1" res="8.0382056534290314e-02" rms="4.4898915290832520e-01" purity="7.0893758535385132e-01" nType="0">
          <Node pos="l" depth="2" NCoef="0" IVar="-1" Cut="0.0000000000000000e+00" cType="1" res="1.9713612273335457e-02" rms="4.4350385665893555e-01" purity="7.1882653236389160e-01" nType="-99"/>
          <Node pos="r" depth="2" NCoef="0" IVar="-1" Cut="0.0000000000000000e+00" cType="1" res="-5.0310692749917507e-03" rms="4.8567277193069458e-01" purity="6.1570489406585693e-01" nType="-99"/>
        </Node>
      </Node>
    </BinaryTree>
    <BinaryTree type="DecisionTree" boostWeight="1.0000000000000000e+00" itree="10">
      <Node pos="s" depth="0" NCoef="0" IVar="0" Cut="9.0923149108886719e+01" cType="1" res="-8.7870901916176081e-04" rms="4.6295577287673950e-01" purity="5.0036919116973877e-01" nType="0">
        <Node pos="l" depth="1" NCoef="0" IVar="0" Cut="5.6448532104492188e+01" cType="1" res="-7.4465192854404449e-02" rms="4.6043750643730164e-01" purity="3.1687319278717041e-01" nType="0">
          <Node pos="l" depth="2" NCoef="0" IVar="-1" Cut="0.0000000000000000e+00" cType="1" res="2.4015752132982016e-03" rms="4.9431300163269043e-01" purity="4.3119990825653076e-01" nType="-99"/>
          <Node pos="r" depth="2" NCoef="0" IVar="-1" Cut="0.0000000000000000e+00" cType="1" res="-2.1222880110144615e-02" rms="4.4677826762199402e-01" purity="2.8310200572013855e-01" nType="-99"/>
        </Node>
        <Node pos="r" depth="1" NCoef="0" IVar="32" Cut="4.7414869070053101e-01" cType="1" res="6.8936988711357117e-02" rms="4.5444747805595398e-01" purity="6.7446237802505493e-01" nType="0">
          <Node pos="l" depth="2" NCoef="0" IVar="-1" Cut="0.0000000000000000e+00" cType="1" res="1.1869170702993870e-02" rms="4.5883849263191223e-01" purity="6.6040807962417603e-01" nType="-99"/>
          <Node pos="r" depth="2" NCoef="0" IVar="-1" Cut="0.0000000000000000e+00" cType="1" res="3.8383815437555313e-02" rms="4.0192952752113342e-01" purity="7.8519767522811890e-01" nType="-99"/>
        </Node>
      </Node>
    </BinaryTree>
    <BinaryTree type="DecisionTree" boostWeight="1.0000000000000000e+00" itree="11">
      <Node pos="s" depth="0" NCoef="0" IVar="0" Cut="1.0225560760498047e+02" cType="1" res="-1.3624265557155013e-04" rms="4.6246010065078735e-01" purity="4.9964207410812378e-01" nType="0">
        <Node pos="l" depth="1" NCoef="0" IVar="3" Cut="1.4114996337890625e+02" cType="1" res="-4.6305865049362183e-02" rms="4.6887692809104919e-01" purity="3.5541558265686035e-01" nType="0">
          <Node pos="l" depth="2" NCoef="0" IVar="-1" Cut="0.0000000000000000e+00" cType="1" res="-4.5153466053307056e-03" rms="4.7856071591377258e-01" purity="3.8712009787559509e-01" nType="-99"/>
          <Node pos="r" depth="2" NCoef="0" IVar="-1" Cut="0.0000000000000000e+00" cType="1" res="-2.7412753552198410e-02" rms="4.2554000020027161e-01" purity="2.5120669603347778e-01" nType="-99"/>
        </Node>
        <Node pos="r" depth="1" NCoef="0" IVar="11" Cut="3.8734497070312500e+01" cType="1" res="7.2328642010688782e-02" rms="4.4259756803512573e-01" purity="7.2601079940795898e-01" nType="0">
          <Node pos="l" depth="2" NCoef="0" IVar="-1" Cut="0.0000000000000000e+00" cType="1" res="4.4309594668447971e-03" rms="4.7067412734031677e-01" purity="6.6358059644699097e-01" nType="-99"/>
          <Node pos="r" depth="2" NCoef="0" IVar="-1" Cut="0.0000000000000000e+00" cType="1" res="2.3273589089512825e-02" rms="4.2134028673171997e-01" purity="7.6421719789505005e-01" nType="-99"/>
        </Node>
      </Node>
    </BinaryTree>
    <BinaryTree type="DecisionTree" boostWeight="1.0000000000000000e+00" itree="12">
      <Node pos="s" depth="0" NCoef="0" IVar="0" Cut="1.0547814941406250e+02" cType="1" res="9.1379549121484160e-04" rms="4.6025311946868896e-01" purity="5.0194936990737915e-01" nType="0">
        <Node pos="l" depth="1" NCoef="0" IVar="1" Cut="5.6570129394531250e+02" cType="1" res="-4.3765511363744736e-02" rms="4.6934157609939575e-01" purity="3.6253237724304199e-01" nType="0">
          <Node pos="l" depth="2" NCoef="0" IVar="-1" Cut="0.0000000000000000e+00" cType="1" res="-5.0269430503249168e-03" rms="4.7894501686096191e-01" purity="3.9124271273612976e-01" nType="-99"/>
          <Node pos="r" depth="2" NCoef="0" IVar="-1" Cut="0.0000000000000000e+00" cType="1" res="-2.8117166832089424e-02" rms="4.1527125239372253e-01" purity="2.3964269459247589e-01" nType="-99"/>
        </Node>
        <Node pos="r" depth="1" NCoef="0" IVar="2" Cut="5.4143154144287109e+01" cType="1" res="7.8761540353298187e-02" rms="4.3309801816940308e-01" purity="7.4486505985260010e-01" nType="0">
          <Node pos="l" depth="2" NCoef="0" IVar="-1" Cut="0.0000000000000000e+00" cType="1" res="-3.3308290876448154e-03" rms="4.7909373044967651e-01" purity="6.3926601409912109e-01" nType="-99"/>
          <Node pos="r" depth="2" NCoef="0" IVar="-1" Cut="0.0000000000000000e+00" cType="1" res="2.1555036306381226e-02" rms="4.2222338914871216e-01" purity="7.6363778114318848e-01" nType="-99"/>
        </Node>
      </Node>
    </BinaryTree>
    <BinaryTree type="DecisionTree" boostWeight="1.0000000000000000e+00" itree="13">
      <Node pos="s" depth="0" NCoef="0" IVar="0" Cut="8.8002716064453125e+01" cType="1" res="2.0763615611940622e-03" rms="4.5991361141204834e-01" purity="5.0243979692459106e-01" nType="0">
        <Node pos="l" depth="1" NCoef="0" IVar="0" Cut="6.6244232177734375e+01" cType="1" res="-5.5265516042709351e-02" rms="4.6006211638450623e-01" purity="3.2052722573280334e-01" nType="0">
          <Node pos="l" depth="2" NCoef="0" IVar="-1" Cut="0.0000000000000000e+00" cType="1" res="3.0110229272395372e-03" rms="4.9152722954750061e-01" purity="4.1764003038406372e-01" nType="-99"/>
          <Node pos="r" depth="2" NCoef="0" IVar="-1" Cut="0.0000000000000000e+00" cType="1" res="-2.1657956764101982e-02" rms="4.3337345123291016e-01" purity="2.5935786962509155e-01" nType="-99"/>
        </Node>
        <Node pos="r" depth="1" NCoef="0" IVar="31" Cut="4.1698253154754639e-01" cType="1" res="4.9444794654846191e-02" rms="4.5436519384384155e-01" purity="6.5271246433258057e-01" nType="0">
          <Node pos="l" depth="2" NCoef="0" IVar="-1" Cut="0.0000000000000000e+00" cType="1" res="7.3661878705024719e-03" rms="4.6027803421020508e-01" purity="6.3322329521179199e-01" nType="-99"/>
          <Node pos="r" depth="2" NCoef="0" IVar="-1" Cut="0.0000000000000000e+00" cType="1" res="2.5118729099631310e-02" rms="4.2374524474143982e-01" purity="7.3113280534744263e-01" nType="-99"/>
        </Node>
      </Node>
    </BinaryTree>
    <BinaryTree type="DecisionTree" boostWeight="1.0000000000000000e+00" itree="14">
      <Node pos="s" depth="0" NCoef="0" IVar="0" Cut="9.0809730529785156e+01" cType="1" res="8.9992024004459381e-04" rms="4.5983090996742249e-01" purity="5.0014066696166992e-01" nType="0">
        <Node pos="l" depth="1" NCoef="0" IVar="0" Cut="5.6969615936279297e+01" cType="1" res="-5.0496619194746017e-02" rms="4.5919129252433777e-01" purity="3.1986561417579651e-01" nType="0">
          <Node pos="l" depth="2" NCoef="0" IVar="-1" Cut="0.0000000000000000e+00" cType="1" res="7.8986901789903641e-03" rms="4.9692305922508240e-01" purity="4.5159491896629333e-01" nType="-99"/>
          <Node pos="r" depth="2" NCoef="0" IVar="-1" Cut="0.0000000000000000e+00" cType="1" res="-1.7243223264813423e-02" rms="4.4282072782516479e-01" purity="2.7797225117683411e-01" nType="-99"/>
        </Node>
        <Node pos="r" depth="1" NCoef="0" IVar="32" Cut="3.8742163777351379e-01" cType="1" res="5.0258297473192215e-02" rms="4.5501196384429932e-01" purity="6.7326676845550537e-01" nType="0">
          <Node pos="l" depth="2" NCoef="0" IVar="-1" Cut="0.0000000000000000e+00" cType="1" res="9.2529021203517914e-03" rms="4.5786124467849731e-01" purity="6.6379123926162720e-01" nType="-99"/>
          <Node pos="r" depth="2" NCoef="0" IVar="-1" Cut="0.0000000000000000e+00" cType="1" res="2.5408789515495300e-02" rms="4.2762830853462219e-01" purity="7.4482917785644531e-01" nType="-99"/>
        </Node>
      </Node>
    </BinaryTree>
    <BinaryTree type="DecisionTree" boostWeight="1.0000000000000000e+00" itree="15">
      <Node pos="s" depth="0" NCoef="0" IVar="0" Cut="1.0286286926269531e+02" cType="1" res="2.4695538450032473e-03" rms="4.5971846580505371e-01" purity="5.0183892250061035e-01" nType="0">
        <Node pos="l" depth="1" NCoef="0" IVar="3" Cut="1.3141184997558594e+02" cType="1" res="-2.7797803282737732e-02" rms="4.6888285875320435e-01" purity="3.5953921079635620e-01" nType="0">
          <Node pos="l" depth="2" NCoef="0" IVar="-1" Cut="0.0000000000000000e+00" cType="1" res="-7.3811417678371072e-04" rms="4.8001417517662048e-01" purity="3.9541298151016235e-01" nType="-99"/>
          <Node pos="r" depth="2" NCoef="0" IVar="-1" Cut="0.0000000000000000e+00" cType="1" res="-1.9002638757228851e-02" rms="4.3562227487564087e-01" purity="2.7366980910301208e-01" nType="-99"/>
        </Node>
        <Node pos="r" depth="1" NCoef="0" IVar="2" Cut="1.0639102172851562e+02" cType="1" res="5.1005680114030838e-02" rms="4.4030636548995972e-01" purity="7.3002797365188599e-01" nType="0">
          <Node pos="l" depth="2" NCoef="0" IVar="-1" Cut="0.0000000000000000e+00" cType="1" res="6.7441277205944061e-03" rms="4.5209577679634094e-01" purity="7.0618343353271484e-01" nType="-99"/>
          <Node pos="r" depth="2" NCoef="0" IVar="-1" Cut="0.0000000000000000e+00" cType="1" res="2.6990883052349091e-02" rms="3.9563375711441040e-01" purity="8.0188697576522827e-01" nType="-99"/>
        </Node>
      </Node>
    </BinaryTree>
    <BinaryTree type="DecisionTree" boostWeight="1.0000000000000000e+00" itree="16">
      <Node pos="s" depth="0" NCoef="0" IVar="0" Cut="1.0341463470458984e+02" cType="1" res="-9.2473509721457958e-04" rms="4.5887884497642517e-01" purity="4.9828657507896423e-01" nType="0">
        <Node pos="l" depth="1" NCoef="0" IVar="15" Cut="5.6178218841552734e+01" cType="1" res="-2.8868429362773895e-02" rms="4.6799787878990173e-01" purity="3.5787227749824524e-01" nType="0">
          <Node pos="l" depth="2" NCoef="0" IVar="-1" Cut="0.0000000000000000e+00" cType="1" res="1.2614850420504808e-03" rms="4.7960779070854187e-01" purity="4.0356612205505371e-01" nType="-99"/>
          <Node pos="r" depth="2" NCoef="0" IVar="-1" Cut="0.0000000000000000e+00" cType="1" res="-1.5509502962231636e-02" rms="4.4989478588104248e-01" purity="3.0237987637519836e-01" nType="-99"/>
        </Node>
        <Node pos="r" depth="1" NCoef="0" IVar="11" Cut="4.0663211822509766e+01" cType="1" res="4.5314759016036987e-02" rms="4.3949225544929504e-01" purity="7.3063540458679199e-01" nType="0">
          <Node pos="l" depth="2" NCoef="0" IVar="-1" Cut="0.0000000000000000e+00" cType="1" res="7.7879324089735746e-04" rms="4.6604865789413452e-01" purity="6.7403835058212280e-01" nType="-99"/>
          <Node pos="r" depth="2" NCoef="0" IVar="-1" Cut="0.0000000000000000e+00" cType="1" res="1.8064444884657860e-02" rms="4.1607710719108582e-01" purity="7.7247583866119385e-01" nType="-99"/>
        </Node>
      </Node>
    </BinaryTree>
    <BinaryTree type="DecisionTree" boostWeight="1.0000000000000000e+00" itree="17">
      <Node pos="s" depth="0" NCoef="0" IVar="0" Cut="9.0923149108886719e+01" cType="1" res="1.1732226994354278e-05" rms="4.5737183094024658e-01" purity="5.0051581859588623e-01" nType="0">
        <Node pos="l" depth="1" NCoef="0" IVar="35" Cut="9.4920706748962402e-01" cType="1" res="-4.0853086858987808e-02" rms="4.5822408795356750e-01" purity="3.1846120953559875e-01" nType="0">
          <Node pos="l" depth="2" NCoef="0" IVar="-1" Cut="0.0000000000000000e+00" cType="1" res="3.6326800473034382e-03" rms="4.7791936993598938e-01" purity="3.7580311298370361e-01" nType="-99"/>
          <Node pos="r" depth="2" NCoef="0" IVar="-1" Cut="0.0000000000000000e+00" cType="1" res="-1.5700474381446838e-02" rms="4.4429558515548706e-01" purity="2.8778487443923950e-01" nType="-99"/>
        </Node>
        <Node pos="r" depth="1" NCoef="0" IVar="32" Cut="4.0673810988664627e-02" cType="1" res="3.9001893252134323e-02" rms="4.5313456654548645e-01" purity="6.7421865463256836e-01" nType="0">
          <Node pos="l" depth="2" NCoef="0" IVar="-1" Cut="0.0000000000000000e+00" cType="1" res="5.4711680859327316e-03" rms="4.6002724766731262e-01" purity="6.5577775239944458e-01" nType="-99"/>
          <Node pos="r" depth="2" NCoef="0" IVar="-1" Cut="0.0000000000000000e+00" cType="1" res="1.8026387318968773e-02" rms="4.3125396966934204e-01" purity="7.2452902793884277e-01" nType="-99"/>
        </Node>
      </Node>
    </BinaryTree>
    <BinaryTree type="DecisionTree" boostWeight="1.0000000000000000e+00" itree="18">
      <Node pos="s" depth="0" NCoef="0" IVar="0" Cut="1.0587259674072266e+02" cType="1" res="9.7870652098208666e-04" rms="4.5838329195976257e-01" purity="4.9941530823707581e-01" nType="0">
        <Node pos="l" depth="1" NCoef="0" IVar="34" Cut="1.6343015432357788e-01" cType="1" res="-2.1496707573533058e-02" rms="4.6860849857330322e-01" purity="3.6999654769897461e-01" nType="0">
          <Node pos="l" depth="2" NCoef="0" IVar="-1" Cut="0.0000000000000000e+00" cType="1" res="9.9584637209773064e-03" rms="4.8516696691513062e-01" purity="4.4282346963882446e-01" nType="-99"/>
          <Node pos="r" depth="2" NCoef="0" IVar="-1" Cut="0.0000000000000000e+00" cType="1" res="-8.8175442069768906e-03" rms="4.6201986074447632e-01" purity="3.4938901662826538e-01" nType="-99"/>
        </Node>
        <Node pos="r" depth="1" NCoef="0" IVar="0" Cut="1.3357670593261719e+02" cType="1" res="4.2571995407342911e-02" rms="4.3578556180000305e-01" purity="7.3891925811767578e-01" nType="0">
          <Node pos="l" depth="2" NCoef="0" IVar="-1" Cut="0.0000000000000000e+00" cType="1" res="1.3628245331346989e-02" rms="4.2656421661376953e-01" purity="7.5531440973281860e-01" nType="-99"/>
          <Node pos="r" depth="2" NCoef="0" IVar="-1" Cut="0.0000000000000000e+00" cType="1" res="-1.0093159042298794e-02" rms="4.7710755467414856e-01" purity="6.4331609010696411e-01" nType="-99"/>
        </Node>
      </Node>
    </BinaryTree>
    <BinaryTree type="DecisionTree" boostWeight="1.0000000000000000e+00" itree="19">
      <Node pos="s" depth="0" NCoef="0" IVar="0" Cut="9.1354385375976562e+01" cType="1" res="2.0582566503435373e-03" rms="4.5394530892372131e-01" purity="5.0480616092681885e-01" nType="0">
        <Node pos="l" depth="1" NCoef="0" IVar="0" Cut="6.4698348999023438e+01" cType="1" res="-3.6140479147434235e-02" rms="4.5638707280158997e-01" purity="3.1857338547706604e-01" nType="0">
          <Node pos="l" depth="2" NCoef="0" IVar="-1" Cut="0.0000000000000000e+00" cType="1" res="6.2786284834146500e-03" rms="4.9109685420989990e-01" purity="4.2665389180183411e-01" nType="-99"/>
          <Node pos="r" depth="2" NCoef="0" IVar="-1" Cut="0.0000000000000000e+00" cType="1" res="-1.5650210902094841e-02" rms="4.3425887823104858e-01" purity="2.6454067230224609e-01" nType="-99"/>
        </Node>
        <Node pos="r" depth="1" NCoef="0" IVar="32" Cut="3.2152405381202698e-01" cType="1" res="3.8899708539247513e-02" rms="4.4850632548332214e-01" purity="6.8442165851593018e-01" nType="0">
          <Node pos="l" depth="2" NCoef="0" IVar="-1" Cut="0.0000000000000000e+00" cType="1" res="6.3974428921937943e-03" rms="4.5407947897911072e-01" purity="6.6987562179565430e-01" nType="-99"/>
          <Node pos="r" depth="2" NCoef="0" IVar="-1" Cut="0.0000000000000000e+00" cType="1" res="2.4248858913779259e-02" rms="4.0776917338371277e-01" purity="7.7136397361755371e-01" nType="-99"/>
        </Node>
      </Node>
    </BinaryTree>
    <BinaryTree type="DecisionTree" boostWeight="1.0000000000000000e+00" itree="20">
      <Node pos="s" depth="0" NCoef="0" IVar="31" Cut="4.8593053221702576e-01" cType="1" res="-2.0113219507038593e-03" rms="4.5711705088615417e-01" purity="4.9697911739349365e-01" nType="0">
        <Node pos="l" depth="1" NCoef="0" IVar="0" Cut="1.0587259674072266e+02" cType="1" res="-1.3553110882639885e-02" rms="4.5718085765838623e-01" purity="4.7955128550529480e-01" nType="0">
          <Node pos="l" depth="2" NCoef="0" IVar="-1" Cut="0.0000000000000000e+00" cType="1" res="-6.8937214091420174e-03" rms="4.6374791860580444e-01" purity="3.5439476370811462e-01" nType="-99"/>
          <Node pos="r" depth="2" NCoef="0" IVar="-1" Cut="0.0000000000000000e+00" cType="1" res="5.2533093839883804e-03" rms="4.4186809659004211e-01" purity="7.2529906034469604e-01" nType="-99"/>
        </Node>
        <Node pos="r" depth="1" NCoef="0" IVar="2" Cut="5.0395568847656250e+01" cType="1" res="6.1438843607902527e-02" rms="4.5152735710144043e-01" purity="5.9278732538223267e-01" nType="0">
          <Node pos="l" depth="2" NCoef="0" IVar="-1" Cut="0.0000000000000000e+00" cType="1" res="2.5186056271195412e-02" rms="4.6725791692733765e-01" purity="6.1135232448577881e-01" nType="-99"/>
          <Node pos="r" depth="2" NCoef="0" IVar="-1" Cut="0.0000000000000000e+00" cType="1" res="9.7948815673589706e-03" rms="4.4423454999923706e-01" purity="5.8611857891082764e-01" nType="-99"/>
        </Node>
      </Node>
    </BinaryTree>
    <BinaryTree type="DecisionTree" boostWeight="1.0000000000000000e+00" itree="21">
      <Node pos="s" depth="0" NCoef="0" IVar="0" Cut="8.7607833862304688e+01" cType="1" res="3.0870218761265278e-03" rms="4.5740127563476562e-01" purity="5.0223964452743530e-01" nType="0">
        <Node pos="l" depth="1" NCoef="0" IVar="35" Cut="9.2041152715682983e-01" cType="1" res="-2.4284821003675461e-02" rms="4.5923247933387756e-01" purity="3.2419958710670471e-01" nType="0">
          <Node pos="l" depth="2" NCoef="0" IVar="-1" Cut="0.0000000000000000e+00" cType="1" res="1.1050037108361721e-02" rms="4.8461869359016418e-01" purity="4.0306535363197327e-01" nType="-99"/>
          <Node pos="r" depth="2" NCoef="0" IVar="-1" Cut="0.0000000000000000e+00" cType="1" res="-1.0504865087568760e-02" rms="4.4870772957801819e-01" purity="3.0000850558280945e-01" nType="-99"/>
        </Node>
        <Node pos="r" depth="1" NCoef="0" IVar="0" Cut="1.3409982299804688e+02" cType="1" res="2.5529075413942337e-02" rms="4.5466667413711548e-01" purity="6.4821392297744751e-01" nType="0">
          <Node pos="l" depth="2" NCoef="0" IVar="-1" Cut="0.0000000000000000e+00" cType="1" res="7.6641328632831573e-03" rms="4.5132115483283997e-01" purity="6.4965641498565674e-01" nType="-99"/>
          <Node pos="r" depth="2" NCoef="0" IVar="-1" Cut="0.0000000000000000e+00" cType="1" res="-1.2691660784184933e-02" rms="4.7989362478256226e-01" purity="6.3365566730499268e-01" nType="-99"/>
        </Node>
      </Node>
    </BinaryTree>
    <BinaryTree type="DecisionTree" boostWeight="1.0000000000000000e+00" itree="22">
      <Node pos="s" depth="0" NCoef="0" IVar="31" Cut="-1.9388283789157867e-01" cType="1" res="2.1803872659802437e-03" rms="4.5809355378150940e-01" purity="4.9977672100067139e-01" nType="0">
        <Node pos="l" depth="1" NCoef="0" IVar="32" Cut="3.8186579942703247e-02" cType="1" res="-2.6713790372014046e-02" rms="4.5491626858711243e-01" purity="4.6160972118377686e-01" nType="0">
          <Node pos="l" depth="2" NCoef="0" IVar="-1" Cut="0.0000000000000000e+00" cType="1" res="-1.0740469209849834e-02" rms="4.5459619164466858e-01" purity="4.3260651826858521e-01" nType="-99"/>
          <Node pos="r" depth="2" NCoef="0" IVar="-1" Cut="0.0000000000000000e+00" cType="1" res="6.6404514946043491e-03" rms="4.5106980204582214e-01" purity="5.3903621435165405e-01" nType="-99"/>
        </Node>
        <Node pos="r" depth="1" NCoef="0" IVar="15" Cut="4.5134246826171875e+01" cType="1" res="2.6908429339528084e-02" rms="4.5935431122779846e-01" purity="5.3244060277938843e-01" nType="0">
          <Node pos="l" depth="2" NCoef="0" IVar="-1" Cut="0.0000000000000000e+00" cType="1" res="1.2448468245565891e-02" rms="4.6837460994720459e-01" purity="5.6437224149703979e-01" nType="-99"/>
          <Node pos="r" depth="2" NCoef="0" IVar="-1" Cut="0.0000000000000000e+00" cType="1" res="2.0306839141994715e-03" rms="4.5267426967620850e-01" purity="5.1241570711135864e-01" nType="-99"/>
        </Node>
      </Node>
    </BinaryTree>
    <BinaryTree type="DecisionTree" boostWeight="1.0000000000000000e+00" itree="23">
      <Node pos="s" depth="0" NCoef="0" IVar="31" Cut="1.4499568939208984e-01" cType="1" res="5.0806300714612007e-03" rms="4.5708283782005310e-01" purity="5.0457203388214111e-01" nType="0">
        <Node pos="l" depth="1" NCoef="0" IVar="32" Cut="5.6209468841552734e-01" cType="1" res="-9.5692956820130348e-03" rms="4.5759978890419006e-01" purity="4.8009705543518066e-01" nType="0">
          <Node pos="l" depth="2" NCoef="0" IVar="-1" Cut="0.0000000000000000e+00" cType="1" res="-4.3100342154502869e-03" rms="4.5882901549339294e-01" purity="4.6571826934814453e-01" nType="-99"/>
          <Node pos="r" depth="2" NCoef="0" IVar="-1" Cut="0.0000000000000000e+00" cType="1" res="2.0089736208319664e-02" rms="4.3366259336471558e-01" purity="6.2458527088165283e-01" nType="-99"/>
        </Node>
        <Node pos="r" depth="1" NCoef="0" IVar="30" Cut="1.4959950447082520e+00" cType="1" res="4.4360551983118057e-02" rms="4.5336356759071350e-01" purity="5.7019519805908203e-01" nType="0">
          <Node pos="l" depth="2" NCoef="0" IVar="-1" Cut="0.0000000000000000e+00" cType="1" res="4.4039813801646233e-03" rms="4.5586353540420532e-01" purity="4.8320364952087402e-01" nType="-99"/>
          <Node pos="r" depth="2" NCoef="0" IVar="-1" Cut="0.0000000000000000e+00" cType="1" res="1.4831401407718658e-02" rms="4.5031127333641052e-01" purity="6.4082926511764526e-01" nType="-99"/>
        </Node>
      </Node>
    </BinaryTree>
    <BinaryTree type="DecisionTree" boostWeight="1.0000000000000000e+00" itree="24">
      <Node pos="s" depth="0" NCoef="0" IVar="32" Cut="6.4882171154022217e-01" cType="1" res="-1.5984957572072744e-03" rms="4.5644122362136841e-01" purity="4.9755075573921204e-01" nType="0">
        <Node pos="l" depth="1" NCoef="0" IVar="31" Cut="-1.9334037601947784e-01" cType="1" res="-8.8076554238796234e-03" rms="4.5655220746994019e-01" purity="4.8771649599075317e-01" nType="0">
          <Node pos="l" depth="2" NCoef="0" IVar="-1" Cut="0.0000000000000000e+00" cType="1" res="-8.8287359103560448e-03" rms="4.5405343174934387e-01" purity="4.4079560041427612e-01" nType="-99"/>
          <Node pos="r" depth="2" NCoef="0" IVar="-1" Cut="0.0000000000000000e+00" cType="1" res="3.6817141808569431e-03" rms="4.5711222290992737e-01" purity="5.2667742967605591e-01" nType="-99"/>
        </Node>
        <Node pos="r" depth="1" NCoef="0" IVar="25" Cut="1.4831934869289398e-01" cType="1" res="9.8434492945671082e-02" rms="4.4295001029968262e-01" purity="6.3400870561599731e-01" nType="0">
          <Node pos="l" depth="2" NCoef="0" IVar="-1" Cut="0.0000000000000000e+00" cType="1" res="2.6037862524390221e-02" rms="4.3514999747276306e-01" purity="6.5086549520492554e-01" nType="-99"/>
          <Node pos="r" depth="2" NCoef="0" IVar="-1" Cut="0.0000000000000000e+00" cType="1" res="1.9168781116604805e-02" rms="4.5086115598678589e-01" purity="6.1541372537612915e-01" nType="-99"/>
        </Node>
      </Node>
    </BinaryTree>
    <BinaryTree type="DecisionTree" boostWeight="1.0000000000000000e+00" itree="25">
      <Node pos="s" depth="0" NCoef="0" IVar="0" Cut="1.1196566009521484e+02" cType="1" res="-1.5317079378291965e-03" rms="4.5644626021385193e-01" purity="4.9686786532402039e-01" nType="0">
        <Node pos="l" depth="1" NCoef="0" IVar="3" Cut="1.0949639892578125e+02" cType="1" res="-1.5011399053037167e-02" rms="4.6551454067230225e-01" purity="3.9950233697891235e-01" nType="0">
          <Node pos="l" depth="2" NCoef="0" IVar="-1" Cut="0.0000000000000000e+00" cType="1" res="4.3510603718459606e-03" rms="4.8133793473243713e-01" purity="4.1013622283935547e-01" nType="-99"/>
          <Node pos="r" depth="2" NCoef="0" IVar="-1" Cut="0.0000000000000000e+00" cType="1" res="-9.6482103690505028e-03" rms="4.5071452856063843e-01" purity="3.9111748337745667e-01" nType="-99"/>
        </Node>
        <Node pos="r" depth="1" NCoef="0" IVar="0" Cut="1.2888252258300781e+02" cType="1" res="3.3046729862689972e-02" rms="4.3038889765739441e-01" purity="7.4663215875625610e-01" nType="0">
          <Node pos="l" depth="2" NCoef="0" IVar="-1" Cut="0.0000000000000000e+00" cType="1" res="1.4701289124786854e-02" rms="4.1093450784683228e-01" purity="7.7938419580459595e-01" nType="-99"/>
          <Node pos="r" depth="2" NCoef="0" IVar="-1" Cut="0.0000000000000000e+00" cType="1" res="-7.3745343834161758e-03" rms="4.6877503395080566e-01" purity="6.6602081060409546e-01" nType="-99"/>
        </Node>
      </Node>
    </BinaryTree>
    <BinaryTree type="DecisionTree" boostWeight="1.0000000000000000e+00" itree="26">
      <Node pos="s" depth="0" NCoef="0" IVar="32" Cut="6.4813297986984253e-01" cType="1" res="-6.6526519367471337e-04" rms="4.5556712150573730e-01" purity="4.9846738576889038e-01" nType="0">
        <Node pos="l" depth="1" NCoef="0" IVar="0" Cut="8.8103240966796875e+01" cType="1" res="-6.6462121903896332e-03" rms="4.5599606633186340e-01" purity="4.8878061771392822e-01" nType="0">
          <Node pos="l" depth="2" NCoef="0" IVar="-1" Cut="0.0000000000000000e+00" cType="1" res="-6.6960412077605724e-03" rms="4.5379275083541870e-01" purity="3.1326201558113098e-01" nType="-99"/>
          <Node pos="r" depth="2" NCoef="0" IVar="-1" Cut="0.0000000000000000e+00" cType="1" res="3.0520760919898748e-03" rms="4.5694658160209656e-01" purity="6.3987964391708374e-01" nType="-99"/>
        </Node>
        <Node pos="r" depth="1" NCoef="0" IVar="-1" Cut="0.0000000000000000e+00" cType="1" res="1.9509492442011833e-02" rms="4.4100716710090637e-01" purity="6.3454186916351318e-01" nType="-99"/>
      </Node>
    </BinaryTree>
    <BinaryTree type="DecisionTree" boostWeight="1.0000000000000000e+00" itree="27">
      <Node pos="s" depth="0" NCoef="0" IVar="0" Cut="1.1286151123046875e+02" cType="1" res="-3.3626153599470854e-03" rms="4.5464938879013062e-01" purity="4.9635538458824158e-01" nType="0">
        <Node pos="l" depth="1" NCoef="0" IVar="3" Cut="1.1391967010498047e+02" cType="1" res="-1.6896421089768410e-02" rms="4.6371266245841980e-01" purity="3.9974448084831238e-01" nType="0">
          <Node pos="l" depth="2" NCoef="0" IVar="-1" Cut="0.0000000000000000e+00" cType="1" res="2.3057756479829550e-03" rms="4.7896715998649597e-01" purity="4.1185751557350159e-01" nType="-99"/>
          <Node pos="r" depth="2" NCoef="0" IVar="-1" Cut="0.0000000000000000e+00" cType="1" res="-1.0073975659906864e-02" rms="4.4650974869728088e-01" purity="3.8780820369720459e-01" nType="-99"/>
        </Node>
        <Node pos="r" depth="1" NCoef="0" IVar="0" Cut="1.3236294555664062e+02" cType="1" res="3.2230395823717117e-02" rms="4.2786401510238647e-01" purity="7.5043559074401855e-01" nType="0">
          <Node pos="l" depth="2" NCoef="0" IVar="-1" Cut="0.0000000000000000e+00" cType="1" res="1.2966120615601540e-02" rms="4.1237261891365051e-01" purity="7.7787655591964722e-01" nType="-99"/>
          <Node pos="r" depth="2" NCoef="0" IVar="-1" Cut="0.0000000000000000e+00" cType="1" res="-9.0631479397416115e-03" rms="4.7429975867271423e-01" purity="6.4861953258514404e-01" nType="-99"/>
        </Node>
      </Node>
    </BinaryTree>
    <BinaryTree type="DecisionTree" boostWeight="1.0000000000000000e+00" itree="28">
      <Node pos="s" depth="0" NCoef="0" IVar="0" Cut="1.0607003784179688e+02" cType="1" res="1.8562976038083434e-04" rms="4.5330205559730530e-01" purity="5.0181770324707031e-01" nType="0">
        <Node pos="l" depth="1" NCoef="0" IVar="34" Cut="2.4511222541332245e-01" cType="1" res="-1.5936287119984627e-02" rms="4.6490037441253662e-01" purity="3.6659905314445496e-01" nType="0">
          <Node pos="l" depth="2" NCoef="0" IVar="-1" Cut="0.0000000000000000e+00" cType="1" res="7.4732843786478043e-03" rms="4.8019495606422424e-01" purity="4.3082454800605774e-01" nType="-99"/>
          <Node pos="r" depth="2" NCoef="0" IVar="-1" Cut="0.0000000000000000e+00" cType="1" res="-8.1162191927433014e-03" rms="4.5685628056526184e-01" purity="3.4016904234886169e-01" nType="-99"/>
        </Node>
        <Node pos="r" depth="1" NCoef="0" IVar="11" Cut="6.0951656341552734e+01" cType="1" res="2.9224835336208344e-02" rms="4.3010339140892029e-01" purity="7.4537688493728638e-01" nType="0">
          <Node pos="l" depth="2" NCoef="0" IVar="-1" Cut="0.0000000000000000e+00" cType="1" res="3.3933199010789394e-03" rms="4.4160813093185425e-01" purity="7.2526270151138306e-01" nType="-99"/>
          <Node pos="r" depth="2" NCoef="0" IVar="-1" Cut="0.0000000000000000e+00" cType="1" res="2.4462625384330750e-02" rms="3.7019836902618408e-01" purity="8.3094346523284912e-01" nType="-99"/>
        </Node>
      </Node>
    </BinaryTree>
    <BinaryTree type="DecisionTree" boostWeight="1.0000000000000000e+00" itree="29">
      <Node pos="s" depth="0" NCoef="0" IVar="0" Cut="6.2238773345947266e+01" cType="1" res="-8.7779539171606302e-04" rms="4.5428544282913208e-01" purity="4.9893513321876526e-01" nType="0">
        <Node pos="l" depth="1" NCoef="0" IVar="35" Cut="9.3481314182281494e-01" cType="1" res="4.8755437135696411e-02" rms="4.9326491355895996e-01" purity="4.4173264503479004e-01" nType="0">
          <Node pos="l" depth="2" NCoef="0" IVar="-1" Cut="0.0000000000000000e+00" cType="1" res="2.2917641326785088e-02" rms="4.9965167045593262e-01" purity="5.1121687889099121e-01" nType="-99"/>
          <Node pos="r" depth="2" NCoef="0" IVar="-1" Cut="0.0000000000000000e+00" cType="1" res="4.5423544943332672e-03" rms="4.8789799213409424e-01" purity="4.1035884618759155e-01" nType="-99"/>
        </Node>
        <Node pos="r" depth="1" NCoef="0" IVar="0" Cut="9.6176948547363281e+01" cType="1" res="-9.6911964938044548e-03" rms="4.4643205404281616e-01" purity="5.0909262895584106e-01" nType="0">
          <Node pos="l" depth="2" NCoef="0" IVar="-1" Cut="0.0000000000000000e+00" cType="1" res="-9.4022098928689957e-03" rms="4.4431680440902710e-01" purity="2.9343652725219727e-01" nType="-99"/>
          <Node pos="r" depth="2" NCoef="0" IVar="-1" Cut="0.0000000000000000e+00" cType="1" res="4.3642674572765827e-03" rms="4.4644549489021301e-01" purity="7.0095896720886230e-01" nType="-99"/>
        </Node>
      </Node>
    </BinaryTree>
    <BinaryTree type="DecisionTree" boostWeight="1.0000000000000000e+00" itree="30">
      <Node pos="s" depth="0" NCoef="0" IVar="0" Cut="5.7759876251220703e+01" cType="1" res="1.1198117863386869e-03" rms="4.5600375533103943e-01" purity="4.9866256117820740e-01" nType="0">
        <Node pos="l" depth="1" NCoef="0" IVar="27" Cut="6.6528717041015625e+01" cType="1" res="5.2483383566141129e-02" rms="4.9456274509429932e-01" purity="4.5574584603309631e-01" nType="0">
          <Node pos="l" depth="2" NCoef="0" IVar="-1" Cut="0.0000000000000000e+00" cType="1" res="-1.5110920649021864e-03" rms="4.8753207921981812e-01" purity="4.1292139887809753e-01" nType="-99"/>
          <Node pos="r" depth="2" NCoef="0" IVar="-1" Cut="0.0000000000000000e+00" cType="1" res="1.6759425401687622e-02" rms="4.9534451961517334e-01" purity="4.7509533166885376e-01" nType="-99"/>
        </Node>
        <Node pos="r" depth="1" NCoef="0" IVar="30" Cut="1.3463917970657349e+00" cType="1" res="-6.0815466567873955e-03" rms="4.4986531138420105e-01" purity="5.0467967987060547e-01" nType="0">
          <Node pos="l" depth="2" NCoef="0" IVar="-1" Cut="0.0000000000000000e+00" cType="1" res="-8.1636980175971985e-03" rms="4.3372109532356262e-01" purity="4.0390998125076294e-01" nType="-99"/>
          <Node pos="r" depth="2" NCoef="0" IVar="-1" Cut="0.0000000000000000e+00" cType="1" res="2.1425245795398951e-03" rms="4.5769441127777100e-01" purity="5.5959004163742065e-01" nType="-99"/>
        </Node>
      </Node>
    </BinaryTree>
    <BinaryTree type="DecisionTree" boostWeight="1.0000000000000000e+00" itree="31">
      <Node pos="s" depth="0" NCoef="0" IVar="32" Cut="5.6102710962295532e-01" cType="1" res="5.4437085054814816e-04" rms="4.5347562432289124e-01" purity="5.0050872564315796e-01" nType="0">
        <Node pos="l" depth="1" NCoef="0" IVar="31" Cut="4.9858319759368896e-01" cType="1" res="-7.1914424188435078e-03" rms="4.5438054203987122e-01" purity="4.8728817701339722e-01" nType="0">
          <Node pos="l" depth="2" NCoef="0" IVar="-1" Cut="0.0000000000000000e+00" cType="1" res="-4.4569745659828186e-03" rms="4.5468533039093018e-01" purity="4.6550396084785461e-01" nType="-99"/>
          <Node pos="r" depth="2" NCoef="0" IVar="-1" Cut="0.0000000000000000e+00" cType="1" res="1.3259614817798138e-02" rms="4.4730475544929504e-01" purity="6.0209506750106812e-01" nType="-99"/>
        </Node>
        <Node pos="r" depth="1" NCoef="0" IVar="1" Cut="4.4294046020507812e+02" cType="1" res="8.2276299595832825e-02" rms="4.3548581004142761e-01" purity="6.4018887281417847e-01" nType="0">
          <Node pos="l" depth="2" NCoef="0" IVar="-1" Cut="0.0000000000000000e+00" cType="1" res="2.6942063122987747e-02" rms="4.5765811204910278e-01" purity="6.6837239265441895e-01" nType="-99"/>
          <Node pos="r" depth="2" NCoef="0" IVar="-1" Cut="0.0000000000000000e+00" cType="1" res="1.2305760756134987e-02" rms="4.1241133213043213e-01" purity="6.1556911468505859e-01" nType="-99"/>
        </Node>
      </Node>
    </BinaryTree>
    <BinaryTree type="DecisionTree" boostWeight="1.0000000000000000e+00" itree="32">
      <Node pos="s" depth="0" NCoef="0" IVar="31" Cut="-2.5168640539050102e-02" cType="1" res="3.3655755687505007e-03" rms="4.5499673485755920e-01" purity="5.0252687931060791e-01" nType="0">
        <Node pos="l" depth="1" NCoef="0" IVar="32" Cut="-1.2977428734302521e-01" cType="1" res="-1.0094081051647663e-02" rms="4.5315858721733093e-01" purity="4.7596555948257446e-01" nType="0">
          <Node pos="l" depth="2" NCoef="0" IVar="-1" Cut="0.0000000000000000e+00" cType="1" res="-7.4445027858018875e-03" rms="4.5268148183822632e-01" purity="4.3582704663276672e-01" nType="-99"/>
          <Node pos="r" depth="2" NCoef="0" IVar="-1" Cut="0.0000000000000000e+00" cType="1" res="4.2612943798303604e-03" rms="4.5217010378837585e-01" purity="5.2723944187164307e-01" nType="-99"/>
        </Node>
        <Node pos="r" depth="1" NCoef="0" IVar="5" Cut="-5.7041776180267334e-01" cType="1" res="2.6924222707748413e-02" rms="4.5724368095397949e-01" purity="5.4901760816574097e-01" nType="0">
          <Node pos="l" depth="2" NCoef="0" IVar="-1" Cut="0.0000000000000000e+00" cType="1" res="-1.2233573943376541e-03" rms="4.5322284102439880e-01" purity="5.1387840509414673e-01" nType="-99"/>
          <Node pos="r" depth="2" NCoef="0" IVar="-1" Cut="0.0000000000000000e+00" cType="1" res="9.2326626181602478e-03" rms="4.5821505784988403e-01" purity="5.6317573785781860e-01" nType="-99"/>
        </Node>
      </Node>
    </BinaryTree>
    <BinaryTree type="DecisionTree" boostWeight="1.0000000000000000e+00" itree="33">
      <Node pos="s" depth="0" NCoef="0" IVar="0" Cut="9.8600288391113281e+01" cType="1" res="-3.2746116630733013e-03" rms="4.5139622688293457e-01" purity="4.9706313014030457e-01" nType="0">
        <Node pos="l" depth="1" NCoef="0" IVar="1" Cut="4.5535485839843750e+02" cType="1" res="-2.0684855058789253e-02" rms="4.5772048830986023e-01" purity="3.3342278003692627e-01" nType="0">
          <Node pos="l" depth="2" NCoef="0" IVar="-1" Cut="0.0000000000000000e+00" cType="1" res="2.5402125902473927e-03" rms="4.8157668113708496e-01" purity="4.0259778499603271e-01" nType="-99"/>
          <Node pos="r" depth="2" NCoef="0" IVar="-1" Cut="0.0000000000000000e+00" cType="1" res="-1.4063778333365917e-02" rms="4.2448201775550842e-01" purity="2.5139686465263367e-01" nType="-99"/>
        </Node>
        <Node pos="r" depth="1" NCoef="0" IVar="2" Cut="7.7394195556640625e+01" cType="1" res="2.0052555948495865e-02" rms="4.4170665740966797e-01" purity="7.1631705760955811e-01" nType="0">
          <Node pos="l" depth="2" NCoef="0" IVar="-1" Cut="0.0000000000000000e+00" cType="1" res="-2.9958630912005901e-03" rms="4.6270868182182312e-01" purity="6.7132872343063354e-01" nType="-99"/>
          <Node pos="r" depth="2" NCoef="0" IVar="-1" Cut="0.0000000000000000e+00" cType="1" res="1.2654070742428303e-02" rms="4.1836875677108765e-01" purity="7.5914806127548218e-01" nType="-99"/>
        </Node>
      </Node>
    </BinaryTree>
    <BinaryTree type="DecisionTree" boostWeight="1.0000000000000000e+00" itree="34">
      <Node pos="s" depth="0" NCoef="0" IVar="15" Cut="5.6181751251220703e+01" cType="1" res="1.0093660093843937e-03" rms="4.5432177186012268e-01" purity="4.9934500455856323e-01" nType="0">
        <Node pos="l" depth="1" NCoef="0" IVar="3" Cut="1.0588780975341797e+02" cType="1" res="1.8259037286043167e-02" rms="4.6351537108421326e-01" purity="5.2130997180938721e-01" nType="0">
          <Node pos="l" depth="2" NCoef="0" IVar="-1" Cut="0.0000000000000000e+00" cType="1" res="1.0742238722741604e-02" rms="4.8799753189086914e-01" purity="4.4520762562751770e-01" nType="-99"/>
          <Node pos="r" depth="2" NCoef="0" IVar="-1" Cut="0.0000000000000000e+00" cType="1" res="8.1381178461015224e-04" rms="4.5096379518508911e-01" purity="5.5654960870742798e-01" nType="-99"/>
        </Node>
        <Node pos="r" depth="1" NCoef="0" IVar="0" Cut="8.8103240966796875e+01" cType="1" res="-1.8913494423031807e-02" rms="4.4263052940368652e-01" purity="4.7397598624229431e-01" nType="0">
          <Node pos="l" depth="2" NCoef="0" IVar="-1" Cut="0.0000000000000000e+00" cType="1" res="-1.1083780787885189e-02" rms="4.3452209234237671e-01" purity="2.7025163173675537e-01" nType="-99"/>
          <Node pos="r" depth="2" NCoef="0" IVar="-1" Cut="0.0000000000000000e+00" cType="1" res="1.0676584206521511e-03" rms="4.4788274168968201e-01" purity="6.4258557558059692e-01" nType="-99"/>
        </Node>
      </Node>
    </BinaryTree>
    <BinaryTree type="DecisionTree" boostWeight="1.0000000000000000e+00" itree="35">
      <Node pos="s" depth="0" NCoef="0" IVar="0" Cut="6.2238773345947266e+01" cType="1" res="-1.1440812377259135e-03" rms="4.5389941334724426e-01" purity="4.9538493156433105e-01" nType="0">
        <Node pos="l" depth="1" NCoef="0" IVar="35" Cut="9.4199627637863159e-01" cType="1" res="4.6738289296627045e-02" rms="4.9062874913215637e-01" purity="4.4758769869804382e-01" nType="0">
          <Node pos="l" depth="2" NCoef="0" IVar="-1" Cut="0.0000000000000000e+00" cType="1" res="2.0762911066412926e-02" rms="4.9325963854789734e-01" purity="5.1593506336212158e-01" nType="-99"/>
          <Node pos="r" depth="2" NCoef="0" IVar="-1" Cut="0.0000000000000000e+00" cType="1" res="4.0288474410772324e-03" rms="4.8695322871208191e-01" purity="4.1184988617897034e-01" nType="-99"/>
        </Node>
        <Node pos="r" depth="1" NCoef="0" IVar="0" Cut="8.6481338500976562e+01" cType="1" res="-1.0007982142269611e-02" rms="4.4620576500892639e-01" purity="5.0423312187194824e-01" nType="0">
          <Node pos="l" depth="2" NCoef="0" IVar="-1" Cut="0.0000000000000000e+00" cType="1" res="-1.2012537568807602e-02" rms="4.2745083570480347e-01" purity="2.5642400979995728e-01" nType="-99"/>
          <Node pos="r" depth="2" NCoef="0" IVar="-1" Cut="0.0000000000000000e+00" cType="1" res="2.5889892131090164e-03" rms="4.5420986413955688e-01" purity="6.3278466463088989e-01" nType="-99"/>
        </Node>
      </Node>
    </BinaryTree>
    <BinaryTree type="DecisionTree" boostWeight="1.0000000000000000e+00" itree="36">
      <Node pos="s" depth="0" NCoef="0" IVar="32" Cut="5.6106561422348022e-01" cType="1" res="1.6295415116474032e-03" rms="4.5361617207527161e-01" purity="5.0075352191925049e-01" nType="0">
        <Node pos="l" depth="1" NCoef="0" IVar="31" Cut="-2.7840685844421387e-01" cType="1" res="-3.7053367123007774e-03" rms="4.5464131236076355e-01" purity="4.8926842212677002e-01" nType="0">
          <Node pos="l" depth="2" NCoef="0" IVar="-1" Cut="0.0000000000000000e+00" cType="1" res="-7.8369211405515671e-03" rms="4.4911342859268188e-01" purity="4.3672272562980652e-01" nType="-99"/>
          <Node pos="r" depth="2" NCoef="0" IVar="-1" Cut="0.0000000000000000e+00" cType="1" res="2.2565056569874287e-03" rms="4.5645332336425781e-01" purity="5.1276010274887085e-01" nType="-99"/>
        </Node>
        <Node pos="r" depth="1" NCoef="0" IVar="24" Cut="-3.5628706216812134e-02" cType="1" res="6.0345605015754700e-02" rms="4.3790325522422791e-01" purity="6.2715983390808105e-01" nType="0">
          <Node pos="l" depth="2" NCoef="0" IVar="-1" Cut="0.0000000000000000e+00" cType="1" res="3.6995923146605492e-03" rms="4.4026717543601990e-01" purity="5.7808488607406616e-01" nType="-99"/>
          <Node pos="r" depth="2" NCoef="0" IVar="-1" Cut="0.0000000000000000e+00" cType="1" res="2.2184178233146667e-02" rms="4.3327394127845764e-01" purity="6.6275793313980103e-01" nType="-99"/>
        </Node>
      </Node>
    </BinaryTree>
    <BinaryTree type="DecisionTree" boostWeight="1.0000000000000000e+00" itree="37">
      <Node pos="s" depth="0" NCoef="0" IVar="15" Cut="5.3426208496093750e+01" cType="1" res="3.9676474407315254e-03" rms="4.5293140411376953e-01" purity="5.0392585992813110e-01" nType="0">
        <Node pos="l" depth="1" NCoef="0" IVar="1" Cut="4.3124188232421875e+02" cType="1" res="2.3744344711303711e-02" rms="4.6364215016365051e-01" purity="5.2939736843109131e-01" nType="0">
          <Node pos="l" depth="2" NCoef="0" IVar="-1" Cut="0.0000000000000000e+00" cType="1" res="9.8853921517729759e-03" rms="4.7335940599441528e-01" purity="5.6051033735275269e-01" nType="-99"/>
          <Node pos="r" depth="2" NCoef="0" IVar="-1" Cut="0.0000000000000000e+00" cType="1" res="-7.5692141763283871e-06" rms="4.5111882686614990e-01" purity="4.9387532472610474e-01" nType="-99"/>
        </Node>
        <Node pos="r" depth="1" NCoef="0" IVar="31" Cut="4.0659412741661072e-01" cType="1" res="-1.6120133921504021e-02" rms="4.4087916612625122e-01" purity="4.7805365920066833e-01" nType="0">
          <Node pos="l" depth="2" NCoef="0" IVar="-1" Cut="0.0000000000000000e+00" cType="1" res="-6.9615887477993965e-03" rms="4.4093167781829834e-01" purity="4.5124903321266174e-01" nType="-99"/>
          <Node pos="r" depth="2" NCoef="0" IVar="-1" Cut="0.0000000000000000e+00" cType="1" res="1.0638199746608734e-02" rms="4.3559226393699646e-01" purity="5.9985816478729248e-01" nType="-99"/>
        </Node>
      </Node>
    </BinaryTree>
    <BinaryTree type="DecisionTree" boostWeight="1.0000000000000000e+00" itree="38">
      <Node pos="s" depth="0" NCoef="0" IVar="32" Cut="-1.3589680194854736e-01" cType="1" res="6.4878640696406364e-03" rms="4.5226833224296570e-01" purity="5.0670659542083740e-01" nType="0">
        <Node pos="l" depth="1" NCoef="0" IVar="31" Cut="2.3029683530330658e-01" cType="1" res="-8.8120661675930023e-03" rms="4.5152002573013306e-01" purity="4.7751006484031677e-01" nType="0">
          <Node pos="l" depth="2" NCoef="0" IVar="-1" Cut="0.0000000000000000e+00" cType="1" res="-4.6907574869692326e-03" rms="4.5269680023193359e-01" purity="4.4670620560646057e-01" nType="-99"/>
          <Node pos="r" depth="2" NCoef="0" IVar="-1" Cut="0.0000000000000000e+00" cType="1" res="5.8657093904912472e-03" rms="4.4632527232170105e-01" purity="5.6837397813796997e-01" nType="-99"/>
        </Node>
        <Node pos="r" depth="1" NCoef="0" IVar="3" Cut="1.1391967010498047e+02" cType="1" res="2.6335602626204491e-02" rms="4.5246702432632446e-01" purity="5.4458159208297729e-01" nType="0">
          <Node pos="l" depth="2" NCoef="0" IVar="-1" Cut="0.0000000000000000e+00" cType="1" res="1.1745789088308811e-02" rms="4.8780569434165955e-01" purity="4.6761286258697510e-01" nType="-99"/>
          <Node pos="r" depth="2" NCoef="0" IVar="-1" Cut="0.0000000000000000e+00" cType="1" res="2.6010121218860149e-03" rms="4.3057051301002502e-01" purity="5.8778184652328491e-01" nType="-99"/>
        </Node>
      </Node>
    </BinaryTree>
    <BinaryTree type="DecisionTree" boostWeight="1.0000000000000000e+00" itree="39">
      <Node pos="s" depth="0" NCoef="0" IVar="18" Cut="8.9118392944335938e+01" cType="1" res="-9.4681384507566690e-04" rms="4.5361959934234619e-01" purity="4.9803209304809570e-01" nType="0">
        <Node pos="l" depth="1" NCoef="0" IVar="15" Cut="4.3318237304687500e+01" cType="1" res="1.2631278485059738e-02" rms="4.6065253019332886e-01" purity="5.1831269264221191e-01" nType="0">
          <Node pos="l" depth="2" NCoef="0" IVar="-1" Cut="0.0000000000000000e+00" cType="1" res="7.2672539390623569e-03" rms="4.6285930275917053e-01" purity="5.4455971717834473e-01" nType="-99"/>
          <Node pos="r" depth="2" NCoef="0" IVar="-1" Cut="0.0000000000000000e+00" cType="1" res="-2.2525638341903687e-03" rms="4.5705443620681763e-01" purity="4.8779755830764771e-01" nType="-99"/>
        </Node>
        <Node pos="r" depth="1" NCoef="0" IVar="0" Cut="1.1283558654785156e+02" cType="1" res="-1.8492115661501884e-02" rms="4.4375213980674744e-01" purity="4.7182586789131165e-01" nType="0">
          <Node pos="l" depth="2" NCoef="0" IVar="-1" Cut="0.0000000000000000e+00" cType="1" res="-7.7621960081160069e-03" rms="4.4998386502265930e-01" purity="3.5911223292350769e-01" nType="-99"/>
          <Node pos="r" depth="2" NCoef="0" IVar="-1" Cut="0.0000000000000000e+00" cType="1" res="4.8413667827844620e-03" rms="4.2568570375442505e-01" purity="7.4994891881942749e-01" nType="-99"/>
        </Node>
      </Node>
    </BinaryTree>
    <BinaryTree type="DecisionTree" boostWeight="1.0000000000000000e+00" itree="40">
      <Node pos="s" depth="0" NCoef="0" IVar="30" Cut="1.4959998130798340e+00" cType="1" res="1.4022563118487597e-03" rms="4.5485964417457581e-01" purity="4.9920240044593811e-01" nType="0">
        <Node pos="l" depth="1" NCoef="0" IVar="0" Cut="5.5543712615966797e+01" cType="1" res="-1.3627727515995502e-02" rms="4.4892257452011108e-01" purity="4.1681450605392456e-01" nType="0">
          <Node pos="l" depth="2" NCoef="0" IVar="-1" Cut="0.0000000000000000e+00" cType="1" res="6.1845267191529274e-03" rms="4.9267387390136719e-01" purity="4.4133841991424561e-01" nType="-99"/>
          <Node pos="r" depth="2" NCoef="0" IVar="-1" Cut="0.0000000000000000e+00" cType="1" res="-6.2440847977995872e-03" rms="4.3493199348449707e-01" purity="4.0985742211341858e-01" nType="-99"/>
        </Node>
        <Node pos="r" depth="1" NCoef="0" IVar="1" Cut="4.1335336303710938e+02" cType="1" res="1.4553204178810120e-02" rms="4.5958861708641052e-01" purity="5.7129025459289551e-01" nType="0">
          <Node pos="l" depth="2" NCoef="0" IVar="-1" Cut="0.0000000000000000e+00" cType="1" res="9.1905621811747551e-03" rms="4.7422742843627930e-01" purity="5.9025830030441284e-01" nType="-99"/>
          <Node pos="r" depth="2" NCoef="0" IVar="-1" Cut="0.0000000000000000e+00" cType="1" res="-1.0058751795440912e-03" rms="4.4776010513305664e-01" purity="5.5756449699401855e-01" nType="-99"/>
        </Node>
      </Node>
    </BinaryTree>
    <BinaryTree type="DecisionTree" boostWeight="1.0000000000000000e+00" itree="41">
      <Node pos="s" depth="0" NCoef="0" IVar="32" Cut="1.2821125984191895e-01" cType="1" res="5.5910047376528382e-04" rms="4.5489433407783508e-01" purity="4.9829754233360291e-01" nType="0">
        <Node pos="l" depth="1" NCoef="0" IVar="15" Cut="5.6180946350097656e+01" cType="1" res="-9.3126669526100159e-03" rms="4.5616120100021362e-01" purity="4.7746661305427551e-01" nType="0">
          <Node pos="l" depth="2" NCoef="0" IVar="-1" Cut="0.0000000000000000e+00" cType="1" res="1.8112630350515246e-03" rms="4.6851164102554321e-01" purity="5.0344616174697876e-01" nType="-99"/>
          <Node pos="r" depth="2" NCoef="0" IVar="-1" Cut="0.0000000000000000e+00" cType="1" res="-6.9737834855914116e-03" rms="4.4064345955848694e-01" purity="4.4749328494071960e-01" nType="-99"/>
        </Node>
        <Node pos="r" depth="1" NCoef="0" IVar="32" Cut="7.4812567234039307e-01" cType="1" res="3.5499449819326401e-02" rms="4.4864004850387573e-01" purity="5.7202702760696411e-01" nType="0">
          <Node pos="l" depth="2" NCoef="0" IVar="-1" Cut="0.0000000000000000e+00" cType="1" res="5.1882369443774223e-03" rms="4.4817632436752319e-01" purity="5.5096727609634399e-01" nType="-99"/>
          <Node pos="r" depth="2" NCoef="0" IVar="-1" Cut="0.0000000000000000e+00" cType="1" res="1.9423453137278557e-02" rms="4.4716301560401917e-01" purity="6.4454615116119385e-01" nType="-99"/>
        </Node>
      </Node>
    </BinaryTree>
    <BinaryTree type="DecisionTree" boostWeight="1.0000000000000000e+00" itree="42">
      <Node pos="s" depth="0" NCoef="0" IVar="0" Cut="9.1637619018554688e+01" cType="1" res="1.8737032078206539e-03" rms="4.5362579822540283e-01" purity="5.0054389238357544e-01" nType="0">
        <Node pos="l" depth="1" NCoef="0" IVar="35" Cut="9.7081691026687622e-01" cType="1" res="-1.3584450818598270e-02" rms="4.5525586605072021e-01" purity="3.2295745611190796e-01" nType="0">
          <Node pos="l" depth="2" NCoef="0" IVar="-1" Cut="0.0000000000000000e+00" cType="1" res="5.4273107089102268e-03" rms="4.7071534395217896e-01" purity="3.6733764410018921e-01" nType="-99"/>
          <Node pos="r" depth="2" NCoef="0" IVar="-1" Cut="0.0000000000000000e+00" cType="1" res="-1.0993965901434422e-02" rms="4.3804341554641724e-01" purity="2.8277632594108582e-01" nType="-99"/>
        </Node>
        <Node pos="r" depth="1" NCoef="0" IVar="0" Cut="1.2956860351562500e+02" cType="1" res="1.7370902001857758e-02" rms="4.5145469903945923e-01" purity="6.7857897281646729e-01" nType="0">
          <Node pos="l" depth="2" NCoef="0" IVar="-1" Cut="0.0000000000000000e+00" cType="1" res="6.3832486048340797e-03" rms="4.4820651412010193e-01" purity="6.8020606040954590e-01" nType="-99"/>
          <Node pos="r" depth="2" NCoef="0" IVar="-1" Cut="0.0000000000000000e+00" cType="1" res="-8.3583164960145950e-03" rms="4.6505495905876160e-01" purity="6.6985917091369629e-01" nType="-99"/>
        </Node>
      </Node>
    </BinaryTree>
    <BinaryTree type="DecisionTree" boostWeight="1.0000000000000000e+00" itree="43">
      <Node pos="s" depth="0" NCoef="0" IVar="31" Cut="6.5069073438644409e-01" cType="1" res="-1.2232740409672260e-03" rms="4.5251086354255676e-01" purity="4.9880710244178772e-01" nType="0">
        <Node pos="l" depth="1" NCoef="0" IVar="15" Cut="4.7377170562744141e+01" cType="1" res="-7.1116308681666851e-03" rms="4.5293763279914856e-01" purity="4.8398658633232117e-01" nType="0">
          <Node pos="l" depth="2" NCoef="0" IVar="-1" Cut="0.0000000000000000e+00" cType="1" res="2.1451793145388365e-03" rms="4.6498489379882812e-01" purity="5.1360809803009033e-01" nType="-99"/>
          <Node pos="r" depth="2" NCoef="0" IVar="-1" Cut="0.0000000000000000e+00" cType="1" res="-4.3977485038340092e-03" rms="4.4403764605522156e-01" purity="4.6345862746238708e-01" nType="-99"/>
        </Node>
        <Node pos="r" depth="1" NCoef="0" IVar="12" Cut="3.7170705199241638e-01" cType="1" res="4.3241798877716064e-02" rms="4.4677636027336121e-01" purity="6.1072194576263428e-01" nType="0">
          <Node pos="l" depth="2" NCoef="0" IVar="-1" Cut="0.0000000000000000e+00" cType="1" res="4.4134636409580708e-03" rms="4.4613012671470642e-01" purity="5.8740687370300293e-01" nType="-99"/>
          <Node pos="r" depth="2" NCoef="0" IVar="-1" Cut="0.0000000000000000e+00" cType="1" res="1.8574994057416916e-02" rms="4.4533717632293701e-01" purity="6.4402377605438232e-01" nType="-99"/>
        </Node>
      </Node>
    </BinaryTree>
    <BinaryTree type="DecisionTree" boostWeight="1.0000000000000000e+00" itree="44">
      <Node pos="s" depth="0" NCoef="0" IVar="31" Cut="4.8580792546272278e-01" cType="1" res="6.2883603386580944e-03" rms="4.5214188098907471e-01" purity="5.0823318958282471e-01" nType="0">
        <Node pos="l" depth="1" NCoef="0" IVar="19" Cut="5.1861591339111328e+01" cType="1" res="-2.6346102822571993e-04" rms="4.5250174403190613e-01" purity="4.8955291509628296e-01" nType="0">
          <Node pos="l" depth="2" NCoef="0" IVar="-1" Cut="0.0000000000000000e+00" cType="1" res="-3.4142683725804090e-03" rms="4.5871680974960327e-01" purity="4.7117510437965393e-01" nType="-99"/>
          <Node pos="r" depth="2" NCoef="0" IVar="-1" Cut="0.0000000000000000e+00" cType="1" res="3.6206948570907116e-03" rms="4.4518685340881348e-01" purity="5.0933825969696045e-01" nType="-99"/>
        </Node>
        <Node pos="r" depth="1" NCoef="0" IVar="8" Cut="-8.0114459991455078e-01" cType="1" res="4.1155178099870682e-02" rms="4.4861531257629395e-01" purity="6.0764384269714355e-01" nType="0">
          <Node pos="l" depth="2" NCoef="0" IVar="-1" Cut="0.0000000000000000e+00" cType="1" res="-3.9534391835331917e-03" rms="4.4267976284027100e-01" purity="5.5632412433624268e-01" nType="-99"/>
          <Node pos="r" depth="2" NCoef="0" IVar="-1" Cut="0.0000000000000000e+00" cType="1" res="1.3668447732925415e-02" rms="4.4894206523895264e-01" purity="6.2229520082473755e-01" nType="-99"/>
        </Node>
      </Node>
    </BinaryTree>
    <BinaryTree type="DecisionTree" boostWeight="1.0000000000000000e+00" itree="45">
      <Node pos="s" depth="0" NCoef="0" IVar="0" Cut="5.7097755432128906e+01" cType="1" res="-8.1332083791494370e-03" rms="4.5195856690406799e-01" purity="4.9140611290931702e-01" nType="0">
        <Node pos="l" depth="1" NCoef="0" IVar="31" Cut="-2.3102219402790070e-01" cType="1" res="3.7670765072107315e-02" rms="4.9422767758369446e-01" purity="4.5109564065933228e-01" nType="0">
          <Node pos="l" depth="2" NCoef="0" IVar="-1" Cut="0.0000000000000000e+00" cType="1" res="-1.8676675390452147e-03" rms="4.8534750938415527e-01" purity="3.8968470692634583e-01" nType="-99"/>
          <Node pos="r" depth="2" NCoef="0" IVar="-1" Cut="0.0000000000000000e+00" cType="1" res="1.3993092812597752e-02" rms="4.9753940105438232e-01" purity="4.9019297957420349e-01" nType="-99"/>
        </Node>
        <Node pos="r" depth="1" NCoef="0" IVar="0" Cut="8.3250061035156250e+01" cType="1" res="-1.4327662996947765e-02" rms="4.4557338953018188e-01" purity="4.9685761332511902e-01" nType="0">
          <Node pos="l" depth="2" NCoef="0" IVar="-1" Cut="0.0000000000000000e+00" cType="1" res="-1.0043135844171047e-02" rms="4.3202647566795349e-01" purity="2.6712951064109802e-01" nType="-99"/>
          <Node pos="r" depth="2" NCoef="0" IVar="-1" Cut="0.0000000000000000e+00" cType="1" res="-4.6823732554912567e-04" rms="4.5091402530670166e-01" purity="5.9896832704544067e-01" nType="-99"/>
        </Node>
      </Node>
    </BinaryTree>
    <BinaryTree type="DecisionTree" boostWeight="1.0000000000000000e+00" itree="46">
      <Node pos="s" depth="0" NCoef="0" IVar="0" Cut="5.7541999816894531e+01" cType="1" res="1.4708363451063633e-03" rms="4.5084825158119202e-01" purity="5.0392872095108032e-01" nType="0">
        <Node pos="l" depth="1" NCoef="0" IVar="18" Cut="8.0296279907226562e+01" cType="1" res="4.3786887079477310e-02" rms="4.9258312582969666e-01" purity="4.6169245243072510e-01" nType="0">
          <Node pos="l" depth="2" NCoef="0" IVar="-1" Cut="0.0000000000000000e+00" cType="1" res="1.4779102988541126e-02" rms="4.9696967005729675e-01" purity="5.0603973865509033e-01" nType="-99"/>
          <Node pos="r" depth="2" NCoef="0" IVar="-1" Cut="0.0000000000000000e+00" cType="1" res="2.0822542719542980e-03" rms="4.8503917455673218e-01" purity="4.0781307220458984e-01" nType="-99"/>
        </Node>
        <Node pos="r" depth="1" NCoef="0" IVar="0" Cut="1.0976133728027344e+02" cType="1" res="-4.4416207820177078e-03" rms="4.4438451528549194e-01" purity="5.0983005762100220e-01" nType="0">
          <Node pos="l" depth="2" NCoef="0" IVar="-1" Cut="0.0000000000000000e+00" cType="1" res="-4.3502738699316978e-03" rms="4.5461958646774292e-01" purity="3.7210005521774292e-01" nType="-99"/>
          <Node pos="r" depth="2" NCoef="0" IVar="-1" Cut="0.0000000000000000e+00" cType="1" res="5.4425164125859737e-03" rms="4.2446044087409973e-01" purity="7.5360316038131714e-01" nType="-99"/>
        </Node>
      </Node>
    </BinaryTree>
    <BinaryTree type="DecisionTree" boostWeight="1.0000000000000000e+00" itree="47">
      <Node pos="s" depth="0" NCoef="0" IVar="31" Cut="-2.7851900458335876e-01" cType="1" res="4.0601119399070740e-03" rms="4.5195150375366211e-01" purity="5.0537943840026855e-01" nType="0">
        <Node pos="l" depth="1" NCoef="0" IVar="15" Cut="4.5395164489746094e+01" cType="1" res="-1.8795408308506012e-02" rms="4.4643506407737732e-01" purity="4.5666897296905518e-01" nType="0">
          <Node pos="l" depth="2" NCoef="0" IVar="-1" Cut="0.0000000000000000e+00" cType="1" res="1.9244439899921417e-03" rms="4.6251949667930603e-01" purity="5.0043779611587524e-01" nType="-99"/>
          <Node pos="r" depth="2" NCoef="0" IVar="-1" Cut="0.0000000000000000e+00" cType="1" res="-8.4383562207221985e-03" rms="4.3553903698921204e-01" purity="4.3006134033203125e-01" nType="-99"/>
        </Node>
        <Node pos="r" depth="1" NCoef="0" IVar="32" Cut="-3.0566760897636414e-01" cType="1" res="1.4285401441156864e-02" rms="4.5402541756629944e-01" purity="5.2717190980911255e-01" nType="0">
          <Node pos="l" depth="2" NCoef="0" IVar="-1" Cut="0.0000000000000000e+00" cType="1" res="-2.0672474056482315e-03" rms="4.5099315047264099e-01" purity="4.9124029278755188e-01" nType="-99"/>
          <Node pos="r" depth="2" NCoef="0" IVar="-1" Cut="0.0000000000000000e+00" cType="1" res="5.1780240610241890e-03" rms="4.5477741956710815e-01" purity="5.3925102949142456e-01" nType="-99"/>
        </Node>
      </Node>
    </BinaryTree>
    <BinaryTree type="DecisionTree" boostWeight="1.0000000000000000e+00" itree="48">
      <Node pos="s" depth="0" NCoef="0" IVar="35" Cut="9.4201302528381348e-01" cType="1" res="-5.3478672634810209e-04" rms="4.5228901505470276e-01" purity="4.9928456544876099e-01" nType="0">
        <Node pos="l" depth="1" NCoef="0" IVar="0" Cut="6.9021827697753906e+01" cType="1" res="2.1460842341184616e-02" rms="4.6997129917144775e-01" purity="5.2744102478027344e-01" nType="0">
          <Node pos="l" depth="2" NCoef="0" IVar="-1" Cut="0.0000000000000000e+00" cType="1" res="1.7761064693331718e-02" rms="4.9623730778694153e-01" purity="4.9019673466682434e-01" nType="-99"/>
          <Node pos="r" depth="2" NCoef="0" IVar="-1" Cut="0.0000000000000000e+00" cType="1" res="1.0202560806646943e-03" rms="4.6096974611282349e-01" purity="5.3774476051330566e-01" nType="-99"/>
        </Node>
        <Node pos="r" depth="1" NCoef="0" IVar="0" Cut="9.0766143798828125e+01" cType="1" res="-1.1190950870513916e-02" rms="4.4307661056518555e-01" purity="4.8564362525939941e-01" nType="0">
          <Node pos="l" depth="2" NCoef="0" IVar="-1" Cut="0.0000000000000000e+00" cType="1" res="-9.3416087329387665e-03" rms="4.3765705823898315e-01" purity="2.8489965200424194e-01" nType="-99"/>
          <Node pos="r" depth="2" NCoef="0" IVar="-1" Cut="0.0000000000000000e+00" cType="1" res="3.8703319150954485e-03" rms="4.4647580385208130e-01" purity="6.7741400003433228e-01" nType="-99"/>
        </Node>
      </Node>
    </BinaryTree>
    <BinaryTree type="DecisionTree" boostWeight="1.0000000000000000e+00" itree="49">
      <Node pos="s" depth="0" NCoef="0" IVar="0" Cut="1.1217118835449219e+02" cType="1" res="-8.2650845870375633e-03" rms="4.4939428567886353e-01" purity="4.9212998151779175e-01" nType="0">
        <Node pos="l" depth="1" NCoef="0" IVar="15" Cut="5.6195869445800781e+01" cType="1" res="-1.8337750807404518e-02" rms="4.5861566066741943e-01" purity="3.8686802983283997e-01" nType="0">
          <Node pos="l" depth="2" NCoef="0" IVar="-1" Cut="0.0000000000000000e+00" cType="1" res="3.7742225686088204e-04" rms="4.7211167216300964e-01" purity="4.3160751461982727e-01" nType="-99"/>
          <Node pos="r" depth="2" NCoef="0" IVar="-1" Cut="0.0000000000000000e+00" cType="1" res="-1.0042927227914333e-02" rms="4.4048646092414856e-01" purity="3.3264702558517456e-01" nType="-99"/>
        </Node>
        <Node pos="r" depth="1" NCoef="0" IVar="35" Cut="9.2764091491699219e-01" cType="1" res="1.6746243461966515e-02" rms="4.2460164427757263e-01" purity="7.5350469350814819e-01" nType="0">
          <Node pos="l" depth="2" NCoef="0" IVar="-1" Cut="0.0000000000000000e+00" cType="1" res="-1.2299777008593082e-02" rms="4.5913490653038025e-01" purity="6.8478232622146606e-01" nType="-99"/>
          <Node pos="r" depth="2" NCoef="0" IVar="-1" Cut="0.0000000000000000e+00" cType="1" res="9.4750244170427322e-03" rms="4.1156554222106934e-01" purity="7.7434623241424561e-01" nType="-99"/>
        </Node>
      </Node>
    </BinaryTree>
    <BinaryTree type="DecisionTree" boostWeight="1.0000000000000000e+00" itree="50">
      <Node pos="s" depth="0" NCoef="0" IVar="0" Cut="6.9511077880859375e+01" cType="1" res="3.1221285462379456e-03" rms="4.5306104421615601e-01" purity="5.0096023082733154e-01" nType="0">
        <Node pos="l" depth="1" NCoef="0" IVar="35" Cut="9.6359461545944214e-01" cType="1" res="3.9832305163145065e-02" rms="4.8433125019073486e-01" purity="4.2404454946517944e-01" nType="0">
          <Node pos="l" depth="2" NCoef="0" IVar="-1" Cut="0.0000000000000000e+00" cType="1" res="1.6913643106818199e-02" rms="4.9154463410377502e-01" purity="4.8433110117912292e-01" nType="-99"/>
          <Node pos="r" depth="2" NCoef="0" IVar="-1" Cut="0.0000000000000000e+00" cType="1" res="1.6550201689824462e-03" rms="4.7591376304626465e-01" purity="3.7470874190330505e-01" nType="-99"/>
        </Node>
        <Node pos="r" depth="1" NCoef="0" IVar="0" Cut="8.3017745971679688e+01" cType="1" res="-6.5756309777498245e-03" rms="4.4392654299736023e-01" purity="5.2127909660339355e-01" nType="0">
          <Node pos="l" depth="2" NCoef="0" IVar="-1" Cut="0.0000000000000000e+00" cType="1" res="-1.2412881478667259e-02" rms="4.1472774744033813e-01" purity="2.3440754413604736e-01" nType="-99"/>
          <Node pos="r" depth="2" NCoef="0" IVar="-1" Cut="0.0000000000000000e+00" cType="1" res="1.4332722639665008e-03" rms="4.5128986239433289e-01" purity="6.0470575094223022e-01" nType="-99"/>
        </Node>
      </Node>
    </BinaryTree>
    <BinaryTree type="DecisionTree" boostWeight="1.0000000000000000e+00" itree="51">
      <Node pos="s" depth="0" NCoef="0" IVar="26" Cut="1.7660137939453125e+02" cType="1" res="9.5960526959970593e-04" rms="4.5207807421684265e-01" purity="5.0127363204956055e-01" nType="0">
        <Node pos="l" depth="1" NCoef="0" IVar="28" Cut="4.6977504730224609e+01" cType="1" res="4.1460120119154453e-03" rms="4.5298829674720764e-01" purity="5.0569969415664673e-01" nType="0">
          <Node pos="l" depth="2" NCoef="0" IVar="-1" Cut="0.0000000000000000e+00" cType="1" res="-1.1446693912148476e-02" rms="4.5083656907081604e-01" purity="4.4335648417472839e-01" nType="-99"/>
          <Node pos="r" depth="2" NCoef="0" IVar="-1" Cut="0.0000000000000000e+00" cType="1" res="1.6313961241394281e-03" rms="4.5293551683425903e-01" purity="5.0901597738265991e-01" nType="-99"/>
        </Node>
        <Node pos="r" depth="1" NCoef="0" IVar="20" Cut="1.1422024667263031e-01" cType="1" res="-5.7999618351459503e-02" rms="4.3065914511680603e-01" purity="4.1937708854675293e-01" nType="0">
          <Node pos="l" depth="2" NCoef="0" IVar="-1" Cut="0.0000000000000000e+00" cType="1" res="-2.2744772955775261e-02" rms="4.2879655957221985e-01" purity="3.7333497405052185e-01" nType="-99"/>
          <Node pos="r" depth="2" NCoef="0" IVar="-1" Cut="0.0000000000000000e+00" cType="1" res="-5.7431180030107498e-03" rms="4.2981913685798645e-01" purity="4.6686780452728271e-01" nType="-99"/>
        </Node>
      </Node>
    </BinaryTree>
    <BinaryTree type="DecisionTree" boostWeight="1.0000000000000000e+00" itree="52">
      <Node pos="s" depth="0" NCoef="0" IVar="16" Cut="1.5459735393524170e+00" cType="1" res="-1.2360429391264915e-03" rms="4.5086291432380676e-01" purity="4.9910002946853638e-01" nType="0">
        <Node pos="l" depth="1" NCoef="0" IVar="0" Cut="1.3337294006347656e+02" cType="1" res="-4.7663799487054348e-03" rms="4.5029175281524658e-01" purity="4.9532359838485718e-01" nType="0">
          <Node pos="l" depth="2" NCoef="0" IVar="-1" Cut="0.0000000000000000e+00" cType="1" res="-4.6540389303117990e-04" rms="4.4848001003265381e-01" purity="4.8758739233016968e-01" nType="-99"/>
          <Node pos="r" depth="2" NCoef="0" IVar="-1" Cut="0.0000000000000000e+00" cType="1" res="-1.3232682831585407e-02" rms="4.7934013605117798e-01" purity="6.3673090934753418e-01" nType="-99"/>
        </Node>
        <Node pos="r" depth="1" NCoef="0" IVar="26" Cut="6.1232124328613281e+01" cType="1" res="3.8608647882938385e-02" rms="4.5536604523658752e-01" purity="5.4172235727310181e-01" nType="0">
          <Node pos="l" depth="2" NCoef="0" IVar="-1" Cut="0.0000000000000000e+00" cType="1" res="1.6804840415716171e-02" rms="4.6178242564201355e-01" purity="5.7646554708480835e-01" nType="-99"/>
          <Node pos="r" depth="2" NCoef="0" IVar="-1" Cut="0.0000000000000000e+00" cType="1" res="1.9169506849721074e-03" rms="4.4729128479957581e-01" purity="5.1035791635513306e-01" nType="-99"/>
        </Node>
      </Node>
    </BinaryTree>
    <BinaryTree type="DecisionTree" boostWeight="1.0000000000000000e+00" itree="53">
      <Node pos="s" depth="0" NCoef="0" IVar="31" Cut="-1.2983357906341553e-01" cType="1" res="-2.2803077008575201e-03" rms="4.4958364963531494e-01" purity="4.9865707755088806e-01" nType="0">
        <Node pos="l" depth="1" NCoef="0" IVar="2" Cut="7.9893959045410156e+01" cType="1" res="-1.7228325828909874e-02" rms="4.4681149721145630e-01" purity="4.6088370680809021e-01" nType="0">
          <Node pos="l" depth="2" NCoef="0" IVar="-1" Cut="0.0000000000000000e+00" cType="1" res="-8.0017177388072014e-03" rms="4.6058055758476257e-01" purity="4.2382439970970154e-01" nType="-99"/>
          <Node pos="r" depth="2" NCoef="0" IVar="-1" Cut="0.0000000000000000e+00" cType="1" res="2.6181605644524097e-03" rms="4.2286711931228638e-01" purity="5.1892948150634766e-01" nType="-99"/>
        </Node>
        <Node pos="r" depth="1" NCoef="0" IVar="30" Cut="1.0472011566162109e+00" cType="1" res="1.5072784386575222e-02" rms="4.5216113328933716e-01" purity="5.4250800609588623e-01" nType="0">
          <Node pos="l" depth="2" NCoef="0" IVar="-1" Cut="0.0000000000000000e+00" cType="1" res="-3.9942539297044277e-03" rms="4.4445952773094177e-01" purity="4.2787882685661316e-01" nType="-99"/>
          <Node pos="r" depth="2" NCoef="0" IVar="-1" Cut="0.0000000000000000e+00" cType="1" res="6.7483740858733654e-03" rms="4.5463085174560547e-01" purity="5.8968198299407959e-01" nType="-99"/>
        </Node>
      </Node>
    </BinaryTree>
    <BinaryTree type="DecisionTree" boostWeight="1.0000000000000000e+00" itree="54">
      <Node pos="s" depth="0" NCoef="0" IVar="33" Cut="6.0287362337112427e-01" cType="1" res="-4.1625802405178547e-03" rms="4.4965955615043640e-01" purity="4.9638643860816956e-01" nType="0">
        <Node pos="l" depth="1" NCoef="0" IVar="12" Cut="1.7721390724182129e+00" cType="1" res="3.7875786074437201e-04" rms="4.5043751597404480e-01" purity="5.0346398353576660e-01" nType="0">
          <Node pos="l" depth="2" NCoef="0" IVar="-1" Cut="0.0000000000000000e+00" cType="1" res="-7.0573622360825539e-04" rms="4.4948455691337585e-01" purity="4.9912872910499573e-01" nType="-99"/>
          <Node pos="r" depth="2" NCoef="0" IVar="-1" Cut="0.0000000000000000e+00" cType="1" res="1.0885059833526611e-02" rms="4.6079564094543457e-01" purity="5.6247299909591675e-01" nType="-99"/>
        </Node>
        <Node pos="r" depth="1" NCoef="0" IVar="17" Cut="-7.4797421693801880e-01" cType="1" res="-3.9229251444339752e-02" rms="4.4203829765319824e-01" purity="4.4173604249954224e-01" nType="0">
          <Node pos="l" depth="2" NCoef="0" IVar="-1" Cut="0.0000000000000000e+00" cType="1" res="-1.7744993790984154e-02" rms="4.4172403216362000e-01" purity="4.0043136477470398e-01" nType="-99"/>
          <Node pos="r" depth="2" NCoef="0" IVar="-1" Cut="0.0000000000000000e+00" cType="1" res="-4.5933243818581104e-03" rms="4.4096529483795166e-01" purity="4.6486383676528931e-01" nType="-99"/>
        </Node>
      </Node>
    </BinaryTree>
    <BinaryTree type="DecisionTree" boostWeight="1.0000000000000000e+00" itree="55">
      <Node pos="s" depth="0" NCoef="0" IVar="0" Cut="6.9319999694824219e+01" cType="1" res="-1.1934210779145360e-03" rms="4.5031318068504333e-01" purity="4.9891379475593567e-01" nType="0">
        <Node pos="l" depth="1" NCoef="0" IVar="6" Cut="-1.3464215993881226e+00" cType="1" res="2.6544783264398575e-02" rms="4.8229151964187622e-01" purity="4.1332879662513733e-01" nType="0">
          <Node pos="l" depth="2" NCoef="0" IVar="-1" Cut="0.0000000000000000e+00" cType="1" res="-4.5807491987943649e-03" rms="4.6810755133628845e-01" purity="3.6869528889656067e-01" nType="-99"/>
          <Node pos="r" depth="2" NCoef="0" IVar="-1" Cut="0.0000000000000000e+00" cType="1" res="9.5276283100247383e-03" rms="4.8619893193244934e-01" purity="4.2960697412490845e-01" nType="-99"/>
        </Node>
        <Node pos="r" depth="1" NCoef="0" IVar="0" Cut="8.7108406066894531e+01" cType="1" res="-8.3556678146123886e-03" rms="4.4139707088470459e-01" purity="5.2101260423660278e-01" nType="0">
          <Node pos="l" depth="2" NCoef="0" IVar="-1" Cut="0.0000000000000000e+00" cType="1" res="-9.3491273000836372e-03" rms="4.2097207903862000e-01" purity="2.4465912580490112e-01" nType="-99"/>
          <Node pos="r" depth="2" NCoef="0" IVar="-1" Cut="0.0000000000000000e+00" cType="1" res="1.0049820411950350e-03" rms="4.4939738512039185e-01" purity="6.4098411798477173e-01" nType="-99"/>
        </Node>
      </Node>
    </BinaryTree>
    <BinaryTree type="DecisionTree" boostWeight="1.0000000000000000e+00" itree="56">
      <Node pos="s" depth="0" NCoef="0" IVar="32" Cut="7.3667478561401367e-01" cType="1" res="3.7773579242639244e-04" rms="4.5204585790634155e-01" purity="4.9836578965187073e-01" nType="0">
        <Node pos="l" depth="1" NCoef="0" IVar="15" Cut="5.3426208496093750e+01" cType="1" res="-3.5864221863448620e-03" rms="4.5268556475639343e-01" purity="4.8987200856208801e-01" nType="0">
          <Node pos="l" depth="2" NCoef="0" IVar="-1" Cut="0.0000000000000000e+00" cType="1" res="2.1450249478220940e-03" rms="4.6281176805496216e-01" purity="5.1954424381256104e-01" nType="-99"/>
          <Node pos="r" depth="2" NCoef="0" IVar="-1" Cut="0.0000000000000000e+00" cType="1" res="-4.0579531341791153e-03" rms="4.4172468781471252e-01" purity="4.5958593487739563e-01" nType="-99"/>
        </Node>
        <Node pos="r" depth="1" NCoef="0" IVar="-1" Cut="0.0000000000000000e+00" cType="1" res="1.7739985138177872e-02" rms="4.3390059471130371e-01" purity="6.5332442522048950e-01" nType="-99"/>
      </Node>
    </BinaryTree>
    <BinaryTree type="DecisionTree" boostWeight="1.0000000000000000e+00" itree="57">
      <Node pos="s" depth="0" NCoef="0" IVar="7" Cut="5.0540504455566406e+01" cType="1" res="2.4217136669903994e-03" rms="4.5215350389480591e-01" purity="5.0069797039031982e-01" nType="0">
        <Node pos="l" depth="1" NCoef="0" IVar="17" Cut="1.6456018686294556e+00" cType="1" res="-3.0307251960039139e-02" rms="4.4946646690368652e-01" purity="5.5617326498031616e-01" nType="0">
          <Node pos="l" depth="2" NCoef="0" IVar="-1" Cut="0.0000000000000000e+00" cType="1" res="-3.5736865829676390e-03" rms="4.4884392619132996e-01" purity="5.7146614789962769e-01" nType="-99"/>
          <Node pos="r" depth="2" NCoef="0" IVar="-1" Cut="0.0000000000000000e+00" cType="1" res="-2.0998509600758553e-02" rms="4.4721892476081848e-01" purity="5.0127571821212769e-01" nType="-99"/>
        </Node>
        <Node pos="r" depth="1" NCoef="0" IVar="32" Cut="5.6243413686752319e-01" cType="1" res="7.9539017751812935e-03" rms="4.5237222313880920e-01" purity="4.9132093787193298e-01" nType="0">
          <Node pos="l" depth="2" NCoef="0" IVar="-1" Cut="0.0000000000000000e+00" cType="1" res="8.5955380927771330e-04" rms="4.5258617401123047e-01" purity="4.8023489117622375e-01" nType="-99"/>
          <Node pos="r" depth="2" NCoef="0" IVar="-1" Cut="0.0000000000000000e+00" cType="1" res="1.3568848371505737e-02" rms="4.4709804654121399e-01" purity="6.1611860990524292e-01" nType="-99"/>
        </Node>
      </Node>
    </BinaryTree>
    <BinaryTree type="DecisionTree" boostWeight="1.0000000000000000e+00" itree="58">
      <Node pos="s" depth="0" NCoef="0" IVar="30" Cut="1.4960245788097382e-01" cType="1" res="-1.9038374302908778e-03" rms="4.5092290639877319e-01" purity="4.9681052565574646e-01" nType="0">
        <Node pos="l" depth="1" NCoef="0" IVar="-1" Cut="0.0000000000000000e+00" cType="1" res="1.4179201796650887e-02" rms="4.7972822189331055e-01" purity="4.6521115303039551e-01" nType="-99"/>
        <Node pos="r" depth="1" NCoef="0" IVar="3" Cut="2.1973138427734375e+02" cType="1" res="-4.3479851447045803e-03" rms="4.4957989454269409e-01" purity="4.9804946780204773e-01" nType="0">
          <Node pos="l" depth="2" NCoef="0" IVar="-1" Cut="0.0000000000000000e+00" cType="1" res="-1.7232267418876290e-03" rms="4.5293757319450378e-01" purity="4.9324840307235718e-01" nType="-99"/>
          <Node pos="r" depth="2" NCoef="0" IVar="-1" Cut="0.0000000000000000e+00" cType="1" res="1.1797659099102020e-02" rms="3.8676315546035767e-01" purity="5.7730162143707275e-01" nType="-99"/>
        </Node>
      </Node>
    </BinaryTree>
    <BinaryTree type="DecisionTree" boostWeight="1.0000000000000000e+00" itree="59">
      <Node pos="s" depth="0" NCoef="0" IVar="28" Cut="3.9548313140869141e+01" cType="1" res="3.6155667621642351e-03" rms="4.4991955161094666e-01" purity="5.0358241796493530e-01" nType="0">
        <Node pos="l" depth="1" NCoef="0" IVar="-1" Cut="0.0000000000000000e+00" cType="1" res="-1.8118530511856079e-02" rms="4.1450724005699158e-01" purity="4.2887762188911438e-01" nType="-99"/>
        <Node pos="r" depth="1" NCoef="0" IVar="0" Cut="1.3371205139160156e+02" cType="1" res="6.2678726390004158e-03" rms="4.5083701610565186e-01" purity="5.0612145662307739e-01" nType="0">
          <Node pos="l" depth="2" NCoef="0" IVar="-1" Cut="0.0000000000000000e+00" cType="1" res="2.1455571986734867e-03" rms="4.4936609268188477e-01" purity="4.9856844544410706e-01" nType="-99"/>
          <Node pos="r" depth="2" NCoef="0" IVar="-1" Cut="0.0000000000000000e+00" cType="1" res="-1.0500781238079071e-02" rms="4.7417184710502625e-01" purity="6.4479547739028931e-01" nType="-99"/>
        </Node>
      </Node>
    </BinaryTree>
    <BinaryTree type="DecisionTree" boostWeight="1.0000000000000000e+00" itree="60">
      <Node pos="s" depth="0" NCoef="0" IVar="0" Cut="1.3446446228027344e+02" cType="1" res="2.8623233083635569e-04" rms="4.5070105791091919e-01" purity="4.9999731779098511e-01" nType="0">
        <Node pos="l" depth="1" NCoef="0" IVar="0" Cut="1.1119950103759766e+02" cType="1" res="3.5712150856852531e-03" rms="4.4880846142768860e-01" purity="4.9463054537773132e-01" nType="0">
          <Node pos="l" depth="2" NCoef="0" IVar="-1" Cut="0.0000000000000000e+00" cType="1" res="-1.0818124283105135e-03" rms="4.6050646901130676e-01" purity="3.9642265439033508e-01" nType="-99"/>
          <Node pos="r" depth="2" NCoef="0" IVar="-1" Cut="0.0000000000000000e+00" cType="1" res="7.2601577267050743e-03" rms="4.1273963451385498e-01" purity="7.7455562353134155e-01" nType="-99"/>
        </Node>
        <Node pos="r" depth="1" NCoef="0" IVar="-1" Cut="0.0000000000000000e+00" cType="1" res="-1.5881054103374481e-02" rms="4.8352801799774170e-01" purity="6.1227929592132568e-01" nType="-99"/>
      </Node>
    </BinaryTree>
